0.004695846066640219,0.08389585970240361,-0.1442851043701922,-0.1755261201520772,-0.029505368703488747,-0.05176242802943428,0.06748394434071774,-0.12754961737593187,-0.016779895685009972,-0.05613159383348184,-0.15812288911349887,-0.10436775139804662,-0.12508909263314114,-0.07879162239579048,0.21732778390842772,-0.03273125591682107,0.05371515415995282,0.0826376915202809,0.046623957777120244,0.0021573845650070204,-0.07616042228432839,0.10057486907820544,-0.10936445720899819,-0.0025154435966982776,0.07573675487898963,0.02995391157510902,0.0018541825445122818,-0.011963386310494659,0.12542698194465887,0.005340675568974702,-0.08936936291275187,0.06103381526428931,0.07890097736516559,0.10147813803390503,0.2224535924116146,-0.03759231965358118,-0.060548102565322046,-0.03255841802091579,-0.01104727102000577,0.1080923161393158,-0.06528746200113325,-0.08944956463073445,0.0992133385979293,0.020659184410482985,0.03878077669328743,-0.06293288667565897,-0.08390826318093349,-0.023430673185346723,0.012681372415921946,0.059187928171689004,0.03749629760518005,-0.05379130216753062,0.021795609764884708,-0.18871078079471426,0.08524069174213848,-0.00459225439230602,0.10341571706526749,-0.0014057130985568136,0.10536087357886523,-0.03786158417659302,0.08631929540565614,0.02458012254068483,-0.07866982493076446,-0.0814773345022948,-0.07272288228807287,-0.03681973913420855,0.07890164142536307,-0.03921092580339384,-0.008162088743712883,0.19646796908289452,0.2573370037021864,0.15208311267924074,0.42984336438391857,0.3095613664053258,0.1304295786592156,0.07681630324174611,0.17859429416594277,-0.04081880782126877,-0.12459742070612417,0.09532856397458118,-0.04345264619487108,-0.09187345124721152,-0.04883836184801973,-0.030830567940680956,-0.0013402503599903035,0.10990253404358101,0.08946621750669016,-0.17105074682856986,0.009699870306318066,-0.1659000858700055,0.22709379869898472,0.06732987725753754,-0.11287237773388813,-0.20753718986672065,-0.0662225939174269,-0.10062613888324091,0.016254947303488237,0.053855416320071396,0.3610886588297339,0.6532476983423239,0.7781643883204697,0.6390542932027332,0.7028776700315388,0.4180853933657721,0.3093346085963594,0.03288109830612578,-0.0364274113455831,0.004496310082345863,-0.10233276112516919,-0.07559839986008918,0.032827937098543127,0.1225166827281871,0.10607321892615783,-0.15705404764487488,-0.03983767317691755,-0.15880127326263943,0.13677624297421484,-0.10661988651616212,0.10823941006397063,-0.019470156410545558,-0.2190121721553897,-0.14837858820178,-0.19539228753765653,-0.05319884876846166,-0.06100158306187363,-0.1544941060000048,0.14606713698519244,0.31704003690087024,0.48785502991353963,0.19868306395586255,-0.036805957588531446,0.0036770178620426433,-0.025077881729319674,-0.04052355696748205,0.03532477397108055,-0.08465627488615542,-0.16932833685128135,0.009934029933393582,0.02545299238570659,-0.029066442338382837,-0.05857433360014639,0.20737607426719484,0.10007366528733276,-0.39745605474587886,0.08489711117137556,0.107196130071961,-0.16509257805431768,0.03388923971225765,0.06850229028934525,-0.12762849077244412,-0.004863954420861789,-0.42472045320245116,-0.12966094617498816,0.010940433327320946,-0.2025042606092803,-0.3289477942142392,-0.23431413502932746,-0.6300123917070344,-0.5635408210955242,-0.7606409213794375,-0.4834259437153193,-0.4399468191972271,-0.28383207030746066,-0.05163662466554878,-0.08765875901726669,-0.2076139567109636,-0.04756808210242914,-0.14107273783795785,-0.022122056099746597,-0.006207292829056108,-0.08283455028163984,0.26759388276377183,0.08003840787728572,0.17987927189717295,-0.017638908142150064,-0.09365882197852166,-0.23615339505319566,-0.2896561569779627,-0.8159694901161965,-0.3004344351914343,-2.9657077473070506E-4,0.25947594249845646,0.1343322243413316,-0.061290661820617674,-0.03533981800295815,-0.3573964639682587,-0.6382780730688021,-0.8845281331568743,-0.841401769426383,-0.5586428463361683,-0.44904020165144287,-0.18032096897221703,-0.09151515464261538,0.01407240255724433,0.0914100464543609,-0.0979029256987515,0.12861789950600383,0.022991429642118474,-0.16952130505193208,-0.1115111336732385,0.09050232580877207,0.05015509965479759,0.1136861845766449,0.16146213725989864,0.06178654348877124,-0.26875937418237045,-0.42793531835609516,-0.2999665859222248,0.4464461345008559,0.15719229295333798,0.04128491868013202,-0.30873054438301606,-0.04557998910311025,-0.06767345538820699,-0.5202986383460106,-0.47068207260856065,-0.6835697909510726,-0.573371598126469,-0.08391294322733037,-0.36958346480396276,-0.06635753209732474,-0.3117383524989803,0.0324584074419595,-0.03778892500457185,-0.14374443505229104,0.06575627911187679,0.16843730560193249,0.1297690115928458,0.12741033162369964,0.08506986824790404,0.23199463400980203,0.2170270799617257,-0.18690243273093238,-0.02191040652790605,-0.22074704517287638,0.10743814576549959,0.08753315284232126,0.03120005607666258,-0.49024828620112304,-0.16098862497430932,-0.1718071566117937,-0.6159180741955369,-0.533808912039772,-0.35705774903103304,-0.6551593392856798,-0.35553810731799734,-0.34292381736440064,-0.5565622336952744,-0.3991246237419353,-0.38320777800433786,3.315834453855767E-4,-0.1990863642333381,0.05705131101172599,-0.04734517269631374,0.04391002679791424,-0.07073593413804265,-0.06998214336044761,-0.21521494895000903,-0.31779136034767863,0.13961176857394583,-0.06113372074447049,-0.23271632107339135,-0.14454302247954778,-0.18141001538209514,-0.2538141796731863,-0.41516149570986705,-0.5739740085363371,-0.1645776099322446,-0.34785945332951596,-0.5494954875837207,-0.6974943875860101,-0.2615698323317338,-0.4986237499137741,-0.39043590518250176,-0.18855122238341387,-0.42803651430236594,-0.35748244806470464,-0.08373772837514194,-0.17348711892317267,-0.08231759536005925,0.019656356844418375,0.049244103648135584,0.20425703069467302,-0.02079041739509722,0.3166112449997796,0.2824611083572556,-5.979817894148037E-4,-0.13310025068540618,-0.015370761154386186,-0.10751865064998731,-0.15812404270288716,-0.16423998808523618,-0.28106597794371097,-0.480395729892968,-0.9938368823140202,-0.5777676009362517,-0.1969347805712425,-0.601607399405078,-0.7693717657328226,-0.7234367594629341,-0.10157058047009987,-0.040813583026726566,0.08095431752227834,-0.23835900697702742,-0.22518713679067162,-0.16112132404594476,0.03563189520999776,0.036998960580986416,-0.08588822012595215,0.1135095207450134,0.08828108727541234,0.23358052284328104,0.2567694902243473,0.3517786980045944,0.18389250086395528,0.12464088863468031,0.02929939638742519,0.27633088426053826,0.09914464727094868,-0.09713972105702706,-0.26579449549725,-0.7448134007200291,-0.9531153764176115,-0.25800881032416517,0.18631609449573025,-0.19379366649838292,-0.5006319490298069,-0.33810949736294627,0.04594603688288542,0.03710988565323661,0.2025111999775637,-0.016777662216267388,-0.05901275498815719,-0.18133482160752223,0.09728944710307588,0.166339097557455,0.016858839725264193,-0.06276572701945869,0.02834087084106767,0.17875230398382186,0.475344969127066,0.15329029805236258,0.33705273307733746,0.3398561199266879,0.47512604269414793,0.3695676804381381,0.25108155811475885,0.07346574343734888,-0.46222717937912683,-0.8222085872864957,-0.5881271587791049,0.22942679980556807,0.15290464982181876,-0.31789710005011734,-0.2058868206704207,-0.09800573274170095,0.08610245833064817,0.2093363702740289,0.4400705177273907,-0.03372173541063499,-0.0666805450052488,8.591997604149548E-4,-0.06545549783582988,-0.06202633611364431,0.06417083686095618,-0.025544533045955786,0.09679878001639475,0.25045713251000457,0.32057177690394506,0.27921407769313744,0.14220548243169098,0.2875870291280074,0.19676740754474517,0.23767101726389084,-0.15462074906060744,-0.2682625158404515,-0.7760845680173829,-0.8727862647265228,-0.47599445625500963,0.36182618910030734,-0.03196349564526874,-0.5719390076541108,0.024326716603384937,0.4908462583323312,0.6750203968149608,0.8913229779011593,0.31216242799824484,-0.11773637612820066,-0.3043679065672806,-0.21929126689163866,-0.15399521950715672,0.0843113594033821,-0.044891879578403994,-0.06668795956288036,0.16634820808610304,0.14371302354597532,0.26007189615735965,0.08681662032453846,-0.047338308622476226,-0.031868367280666755,0.13440014383012572,-0.45562828264825234,-0.4097320282098381,-0.39934489527163164,-0.4338611080161617,-0.8836403252226922,-0.3002572564898054,-0.11147447694436319,-0.29142580210373026,-0.40074706872025306,0.23543250032879456,0.5715392072258326,0.918587660880008,0.8109626629514156,0.7653418686041009,0.1762616480795243,-0.2506450753662868,-0.089466622719329,-0.01579282954552309,-0.09864974281179172,-0.03498425455589848,0.14690731637299498,-0.10120472731600076,-0.038023412491636294,0.13635112916017203,0.08626630122558605,0.1737985559881276,0.2551126113231028,0.16514634547389406,-0.5098044506183301,-0.36213219307568373,-0.37375156789165914,-0.43515155656909865,-0.6551617380633796,-0.042065218979975956,0.12680861921169448,-0.2415856796091719,0.27321246685196376,0.07771640332908922,0.5062709838330471,0.4527909352674083,0.48974108753978085,0.6434869894366347,-0.14762341325523823,-0.5310792818453375,-0.005038054218012658,0.07146556767193989,-0.005980982762184943,-0.13170210335050406,-3.8437164760313E-4,0.06376553349737547,-0.05042026373610309,-0.0977223006705059,0.05398587993419418,0.13036496836985592,0.276143236677471,0.2874214105749024,-0.4126028703517644,-0.7557443538713823,-0.8383072657715821,-0.9027941298820282,-0.7320357832105584,-0.6031881104198822,0.010505161312113372,-0.2041979421784358,0.3030550119270758,0.03986935908046513,-0.007872386916317529,0.028462182101226287,0.17031292029626752,0.14989349827440598,-0.2088302538410953,-0.3988488107786778,-0.035140448382519514,-0.04121496045033007,-0.11813262879417176,-0.18739499265853016,-0.04602535751453345,6.791421896698901E-4,0.11832647434209233,-0.31475750894702736,-0.24372723235045868,-0.07478911789131668,0.36985024532427074,0.3212842081512717,-0.43635145659304836,-0.7758486544822017,-0.777408167062916,-0.9273174694746907,-0.614127733039489,-0.15569064760395276,0.05625249519345114,0.058945138699740676,-0.007466443369979512,-0.16368277146402144,-0.28471972245087895,-0.08784574103774899,0.011063215073052213,-0.2692374392802646,-0.20246382870507465,-0.2925053054766144,-0.10739227858829377,0.052960610745928914,0.05944546737506496,0.050853282020546224,-0.16566756525358567,0.05197972579581657,-0.07656158465519691,-0.45379722944565365,-0.5868571096128201,-0.3166396462304866,-0.2556532033991404,0.09972364399165816,-0.08509137553379766,-0.8039131830299069,-0.49095849014040305,-0.37275796666285815,-0.17616207325734518,0.126667557072195,-0.014610428022740268,-0.2972481313308971,-0.44625964769196974,-0.3636885932824952,0.1810954721436169,0.19071014107214143,-0.13846534454084838,-0.695925842436802,-0.33052067023564363,-0.13870082026193314,-0.025954395655001794,-0.03953362295724881,-0.09712257431708027,0.13839017529252495,0.11064041461730668,0.03556104443522843,-0.23695059513563738,-0.230616241321935,-0.6466930553279387,-0.5423484319807829,-0.3728145327427341,-0.6810454739324465,-0.689196826019037,-0.4586067752183296,-0.4260383108533773,-0.36885722481481936,-0.24538063102598506,-0.10485109833629398,0.35752642812081886,0.18342812052332338,0.11560283687189744,0.004926146758658887,0.33210365293390987,0.3965292817536813,-0.2360611509403944,-0.4908538776748717,-0.3339492891510869,0.16537015825131743,-0.16592013597163557,0.02019989723805192,0.10741994297897418,-0.043899192426972676,-0.01346986652480393,-0.08396540507890247,-0.09759565775377943,-0.5047047321408163,-0.5596380355679553,-0.52449641260839,-0.5213081004133897,-0.5560191197550824,-0.7290441112927195,-0.6793500250599153,-0.6102122180572715,-0.29422358815855815,-0.16825443595412476,0.20512293511169302,0.2917767258197953,0.5555550958434234,0.44068793081858815,0.25287558597117876,0.10746626530311586,-0.07516760071012414,-0.3233533870453787,-0.42431177246429097,-0.26033302195318525,0.016650423476748135,0.10725921499732456,-0.171301942571812,0.024903748814752113,0.006993191206223057,0.13340374253579163,-0.08926213674828226,0.01896919388907835,-0.007235507574285281,-0.49000614089633265,-0.5739625343594839,-0.7158756755429663,-0.6300309967968286,-0.5212883913695646,-0.41130507234552804,-0.3880586057858252,-0.4680533891777999,-0.24392808291996373,-0.10889128805344823,0.09951718276858865,0.13000299966078996,0.44994722875230003,0.06616641006105078,-0.05333273246312851,-0.45472154542159643,-0.36714978476997695,-0.4192870044390747,-0.27216650619824606,0.003958917103034558,0.005474631068182023,-0.06190397677500842,0.07768491990813688,0.03850403359598755,0.030212605164554773,-0.02734545108657368,0.01645260661848127,-0.20450738458780537,-0.09131437357885791,-0.5147363303730839,-0.4820313711627135,-0.791250592370806,-0.5841414893561282,-0.70172031314831,-0.676805206130793,-1.0165090017374427,-0.7232424057181045,-0.4715983630071797,-0.4007941848008177,-0.12291996484514253,-0.2215225154820895,0.10516944932400168,-0.25913348852294665,-0.292011804082547,-0.23473526295365998,-0.20871148672427475,-0.15345182904281984,-0.1997885376849854,-0.249753435224266,0.0362246344746373,0.045803813526310626,-0.10981395358076261,0.09945113030472867,-0.07580432898018878,0.005349614728986047,-0.11502628080454169,-0.00427012625352429,0.0608167437864742,-0.03251123093025701,-0.16687612671894164,-0.19835283495236009,-0.23663503345110068,-0.46184696647676304,-0.9247283767668443,-0.8031774602410096,-0.7827754695659753,-0.7467113514934552,-0.2444733702179805,0.04511871316394483,0.2681271830247167,-0.1846219410551657,0.35770153723756476,-0.2100260032374462,-0.07873099858225674,0.05326043736771307,-0.12801596302659904,0.06037942512545701,0.016943709345369234,-0.06652613350100055,-0.07354927869551738,0.08065457435474259,0.10224147480962201,0.142559255134441,-0.07088471892530862,-0.04249697452699303,0.04005850532431215,0.11400936693207546,0.09055912671493403,-0.012672228339785483,0.14521696788797522,0.24001189375328114,-0.2100084058621898,-0.08035923517966448,-0.2173225061341033,-0.28433061260535547,0.05760722326445721,0.3311894393563974,0.7479175520385074,0.2694249222677908,-0.02242307723649585,0.35083217197159927,0.10987260548608216,0.06440032147403443,-0.09755334416758299,0.018101024470962193,-0.19004823732103562,-0.2393991569473775,0.23095624360720957,0.07566361168119738,0.22182827024680105,-0.0030140307885228824,0.15233861672699256,0.16985975456357896,0.22566499207300716,0.12937493399663588,0.13152971417189677,0.1828716228944196,0.25627632703812364,0.24478148356469487,0.2976099569002798,0.29525825921379273,0.1948503945899745,0.15684571650725782,0.3909033803737041,0.20391133995794838,0.3984338412018303,0.3173612509653112,0.29098291062910764,0.2643977160803872,0.14622563891150783,-0.044605555977533407,-0.10492448422980209,-0.15885884809055306,-0.04045053199124656,-0.012752493493976719,0.0767325097706029,0.09659444579195502,-0.026988987162066217,-0.12909923212445132,0.019889700223519123,0.1800809703691874,-0.07744478646846044,0.13583466737784,0.04250087209592369,0.05918551447727952,0.131388873487672,0.13767549586766128,0.0847804798329471,-0.02018521791148336,0.04057861629719476,0.20599171662025043,-0.002923039523279097,0.15696338122060374,-0.14874712671699386,0.13103141114027989,-0.09974653912586605,-0.012714310429542882,-0.1384452558942954,-0.10331644780877161,-0.028916084582686234,0.14901202582185497,-0.1701990703796854,-0.15787502470459852,-0.030527003806222485,-0.07440415334642715,-0.19129443406862906,-0.036143223807661,-0.1568446606150393,0.06963465768085471,-0.1504721969814338,-0.07770051490685229,0.14335242337560267,-0.05295847004881166,0.07733651091029152,-0.09887778626571694,0.03560185603026769,0.09003624868321841,0.1244818276194275,0.05919934867533387,-0.056126224050705574,0.014425025860792511,0.11796312836779171,0.02492054062240626,-0.20474013655432383,0.12130578891517103,-0.1472244943560056,-0.20270318791290273,-0.09914926531973096,-0.06597754576942826,-0.08683548497641842,-0.13589383180849995
-0.047793314875896976,-0.10691651833086259,-0.07306169173890976,-0.13283099516118652,0.05608838866077013,-0.07926904422109408,0.01769464220633775,-0.13579368675615988,-7.30737772343431E-4,0.056872872433082096,-0.07047167965346544,-0.16760684186137317,-0.17872370884472055,0.036599252347587326,0.06394989930362614,-0.10124102296571638,-0.01762256105995296,-0.04729808836575982,0.047232094172683696,-0.16099182223542619,0.060135270702206735,0.05573664198037596,0.05498815302554714,0.12803102078799222,-0.0712580682585852,0.03473367259879861,-0.1500597871833079,0.026600899809076393,-0.10173870309959741,0.06916725556830862,0.05931447650750923,0.055671017171049754,-0.06424019632116665,-0.13886353623073025,-0.15670916299892437,-0.11055603705371801,-0.08713068109385981,0.17610114173601116,-0.06259610930135712,-0.019723744763620397,-0.13455781130369757,0.06660196835731465,-0.12775572511487138,-0.06200835582630477,-0.08100238260950722,-0.05048601572389152,0.14724049921825924,0.02051132876811882,-0.06461888250189413,-0.04518267919186712,0.039470747554165866,0.13798188205158388,-0.08757622985180348,0.003916550236743048,0.1475595733086667,0.15179134339928338,-0.08731364215706151,0.04093097912015194,0.0709877487435751,0.10661672593920472,0.0057148488528032055,-0.13274594155753716,-0.14858330267472497,0.10733892840067992,-0.06421993147583693,-0.12527990867754432,0.31720535866866617,-0.26794370627596165,-0.06925216805549697,-0.10371035211468145,-0.12316972601394052,-0.03445747666558032,-0.1352082047175114,-0.1185141886960701,-0.15136734126801207,-0.051467993496194075,-0.0592515660110124,-0.053771303466937696,-0.10715184883032956,-0.012268636187457821,0.028203488616568725,0.05464533388670736,0.05153748202179897,-0.03431673216508247,0.17769057333449984,0.1540355769949159,0.05664075499586462,0.09032069413020972,0.0650320412190846,0.10164342163319082,0.02469958845986847,-0.18145329548557612,-0.2159160254474767,0.06705834321835724,-0.01154454032171265,-0.16159984219578535,-0.09375236907284414,-0.10414425145330389,-0.32942895599742206,-0.3862770586269786,-0.25169957057296427,-0.1331417698884837,-0.023957739957239075,-0.1925003599530858,0.014203439486624225,-0.2527193801531192,0.11722197178634555,0.036176654472625636,0.02038397450198174,0.015385777220499402,0.026082735759668803,0.11374362538230744,-0.10588292514000415,-0.18907568009300074,0.15862149916438342,-0.18460519259850447,-0.014864167203653553,0.06561742728764355,0.10304867829923864,-0.09020186242364654,-0.06116412305478804,-0.02773767158801978,-0.06755953407211676,-0.18174445277776863,-0.11058474833830914,-0.34509415006109945,-0.19398376316814406,-0.11756535406220472,-0.5328077556235891,-0.43540551541818817,-0.2870700890162966,-0.12845864137669202,-0.019185451163714166,-0.10137653877338787,-0.012752228740349767,0.1733885744359486,0.06908080254344694,-4.907298054690781E-4,-0.05495466464951755,0.043369098497170334,0.16099658046613982,-0.018446235952091022,0.060967359486693115,-0.0905389773140113,-0.021448238040310024,-0.073891343077943,0.060703289936002464,0.025467903814862414,-0.14270360958444744,-0.36261040242650894,-0.14358613092919614,-0.07996623433833479,-0.19530492424399226,-0.18850519548134953,-0.14521364587012098,-0.34022706715969847,-0.40729343055639805,-0.32097282043975545,-0.2184678970233827,-0.3253239828343561,-0.2131349652879658,-0.02269518548347714,-0.05573007220253118,-0.013221637961987947,-0.046540995568181476,-0.03223164726064968,-0.06658743986252805,0.15107981435068604,-0.15087240405243965,-0.08901144730813504,0.12158875092595504,0.0458624022625048,0.023793632430671317,0.11295733501809682,-0.19905231645274374,-0.005445379189941955,-0.24601901217892244,-0.1183388335106392,-0.16090317882195782,-0.1501266714612463,-0.0798991838651345,-0.25154251538846045,-0.2362753324611439,0.12333556973729969,-0.18040732432265638,-0.059259609175871746,-0.37361157675150775,-0.3721266165650703,-0.5585871197977792,-0.5598845308330039,-0.09730106621771031,0.006101860576033354,0.35282433046399325,0.2833226095948161,0.04822677540879991,-0.09197052780676447,0.02017043137016583,0.06511576888782314,-0.16897387173114797,0.04957172376702717,-0.04164610803728961,-0.19835832585338614,-0.10469397119626667,-0.11677443469399665,-0.09749914769804296,-0.02265453231497924,-0.0663251616578798,-0.03921860782902328,-0.07878334351303075,0.02907673308205867,-0.20244080551571986,-0.582831218312291,-0.7538405390036123,-0.6162169714813643,-0.5387531852030775,-0.7480720835497793,-0.5688649293803862,-0.5507743943207017,-0.156512061866302,-0.09314474347360238,0.2597799485948595,0.30543489263076173,0.10600199072108996,0.0402420979254233,0.022599102643203795,0.06787833264249166,-7.054911767756198E-4,-0.06919678054940899,0.01102356886331622,-0.06362943452854516,0.042260576432725315,-0.20423067032478573,-0.09323389901703254,-0.2945125717915648,-0.16272770770625924,-0.037183030196893445,-0.07262529762916914,-0.17408317067884369,-0.5538542075580479,-0.7552276634203737,-0.8134952066973897,-0.6207532075273303,-0.7652699676748165,-0.6851897691132495,-0.25741963393531103,-0.23252472202130028,0.17788537696764867,0.4680334854594836,0.47367374815539753,0.19575442849281863,0.09507775687302816,-0.043844637823507705,0.05470195650305187,-0.043061166935898496,-0.05567222332536534,-0.055432044228854546,-0.0034269601647419134,-0.1181644537097552,-0.04410703282209383,-0.2040499961964556,-0.21358848266083197,-0.22002371935376447,-0.42524138041133874,0.08889888757592274,-0.0726830297488416,-0.1884731142745209,-0.46902760426775536,-0.5977652711017156,-0.4334773603948105,-0.1054037003550515,-0.3723367072171813,-0.3336960182905593,-0.24985731222431753,0.21434260327621188,0.18382355002911577,0.28434104583368175,0.6418423846573913,0.412275704472676,0.12242325509728126,-0.11610847072510422,-0.015536099600352748,-0.15036827167883646,0.13514477886349646,0.020112287461539882,0.018378539884562537,-0.1244608834479199,-0.20204474314688176,0.09982616093383571,-0.17447017718679594,-0.16100388559865714,-0.23725541623108623,-0.5084149298989783,-0.0914722251045255,-0.0995010629342966,0.2117353235797456,0.18465412529988656,0.5077791527251557,0.1752867446042556,0.39682922197652876,0.4377388103591262,0.24687954267144116,0.24249920971451255,0.5243232201040584,0.4054656366083102,0.24356532126252045,0.4950912445600703,0.043952651540328305,0.06794452175010293,0.02300362787752177,0.028069266776072903,-0.2535545391472159,0.07136258868244359,-0.12484813554090138,-0.07068284270678009,-0.19323606746566208,-0.20846899889443796,-0.35195723326610395,-0.21345033322227921,-0.15106926452421923,-0.07819284658513007,0.045805754610849965,-0.028324983562324792,0.36962291695587407,0.6305377644409984,0.5323656355367123,0.42095036734740937,0.3637486868625169,0.3288150518206497,0.3493437308969896,0.15855393998449024,0.12281408430705328,0.06184100668394998,0.3499554780262557,0.32904203882547794,0.060210747390294674,-0.029757128997210502,-0.23606035662438526,0.08833355292815769,-0.14578657664470565,-0.04672234930246151,0.12741210920709115,-0.06828541460571735,-0.24723565022351063,-0.30502105177148525,-0.016041299615123964,-0.09256456165447367,0.4075831150761934,0.4945678210818452,0.48600284580244857,0.23062869739804154,0.19482297510753832,-0.09175813038730951,0.08355838086561587,-0.1574967576824558,-0.3169759727911026,-0.3277999769076288,-0.002264292959655119,-0.44462027954510736,-0.21447579721562776,-0.1341852277634816,-0.10757222917580013,0.1844156724736513,0.18672140569916576,-0.0035626089132672566,0.004472060962525453,-0.023692757255318646,-0.010890714055904067,0.06322922398207267,-0.13250139847279724,-0.09092300361256023,-0.19197149584795484,-0.2918435864603504,0.02599713781511736,0.24403238609838118,0.1752117493733616,0.4487214123244706,0.41234030667190685,0.41705586439214,-0.27699724615545396,-0.5968708442436185,-0.35143206384813985,-0.5660668312735133,-0.47932946548864164,-0.5024832219570449,-0.45892677175962576,-0.543306694455542,-0.352481766978571,-0.26837066133289766,-0.06493139608074747,0.10846880248977155,0.1044585175170945,0.1094187029578554,0.07227139766596699,0.06978363476211809,-0.03704573784254522,-0.12338651718021937,0.05365488277759609,-0.02325832344547092,-0.2523394396915531,-0.41115858349677825,-0.0934834618471847,0.12499045556190408,0.17324760278263757,-0.06556869741763405,-0.18992680682675264,-0.2925279438239982,-0.6816316235756883,-0.7623103922128966,-0.42574612113537763,-0.5315771080786665,-0.35314871687249766,-0.44448702788384303,-0.1638165779234287,-0.5377337769506539,-0.19996575274172157,-0.31936879098584603,-0.09913913400732838,0.03132920672227955,0.011163070848384991,-0.045804002377191254,-0.0014748786987040059,0.1373653525779553,0.02426251640057646,-0.0038718444859383878,-0.017460723540633737,0.21534771257608026,-0.1561305784300109,-0.33077412458522454,-0.45981896938828976,-0.28873028004536266,-0.16163458877396542,-0.20469000101662865,-0.31308546561913286,-0.501342839410746,-0.8617504162689591,-0.6346300809926999,-0.38883474907907273,-0.3791758356676848,-0.26489070624075317,-0.42378502613494123,-0.14464748303538222,-0.2592263549693393,-0.0044889068419972184,-0.2035327382769071,-0.13434608453470306,0.05184596253345076,-0.017593513247078665,0.0390058253879267,-0.11825527944153946,-0.10590132692265715,-0.23170377177543672,0.09475952759921513,0.0020272753727114175,0.21370368619047767,0.056931835133673225,-0.09955279592631068,-0.40853854465341805,-0.6465532754260175,-0.7129478926336316,-0.5467234787524371,-0.3772159225868352,-0.37450545566938076,-0.5383309999536882,-0.48008676968745406,-0.27414988835298626,-0.21984703501366487,-0.21590628887343907,-0.23306965825391288,-0.12811745108905698,-0.30809828092871827,-0.1742194772055253,0.00996214153490656,0.19908762351904336,-0.20075689942293526,0.14507119827352064,0.04414517390072128,0.03345894098579875,-0.07889564515462817,-0.16837393867568745,0.07168985664474124,0.16423367473268838,0.31370087554814585,0.3232892437849069,-0.13220836978997355,-0.304157988983201,-0.2762406677720181,-0.5009526542740267,-0.14820162964377065,-0.3294758119753525,-0.1952008160973692,-0.388956572250757,-0.3080156088832854,-0.16801420477848894,-0.21456351718860942,-0.22910360475787203,-0.38293327366182695,-0.25734467004935807,-0.25887425440785333,-0.00474233851282862,-0.026948762362210693,-0.07435551209933092,-0.09026167877209523,-0.08802009426434397,-0.06164609683216329,-0.18367528172085845,-0.14728548863209723,0.05616119059555322,0.04231151973935203,0.050148480359416096,0.24485304192058305,0.41658537236148385,0.33455042063120566,0.4192646606872132,0.3734379309885541,0.49226843126215425,0.5287907354810921,0.13014703082765383,0.047425638129766,0.07098727663670658,0.05146319494720608,0.0350600397975899,-0.39176245755382955,-0.30175829878138005,-0.1221937007698155,-0.5130897215486656,-0.17639098186707156,-0.0722464720512328,-0.03183887763471754,-0.0852409888830842,0.012069650633715196,0.01872351724296814,-0.0756733424627162,-0.006715357234542082,0.019831532102787392,-0.09358275607475253,0.008929822557780446,0.014609430997407432,6.696849262009843E-4,0.1245352162443252,0.3207631727812369,0.47858840762449295,0.4628412882486137,0.520298297461866,0.3732671939220625,0.26247331152260917,0.3531627209112653,0.010407049777314421,0.003071839262988889,0.021832978472000886,-0.15036470643590577,-0.2528109587557889,-0.31634633614772295,-0.3901622784078075,-0.15908484557774588,-0.07140629783627514,-0.03648757442378809,-0.03984445571373798,0.013031249430343783,0.045339616196679866,-0.08765413024839339,0.029000768749796138,0.026604534336917694,0.06412675551467023,-0.10342441561545912,-0.17942575175419237,-0.04065831778447487,-0.05985018642481115,0.120744294967394,0.09675070578881675,-0.008409384500409647,0.12685384982650286,-0.05593329458758177,-0.04111486106643486,0.16923221413602627,-4.738528183592396E-6,-0.06488402315770238,-0.1832034590496889,-0.41818891809540404,-0.45893770756432106,-0.43912463156166054,-0.3612598472727611,-0.25335320637376973,-0.03949371970089245,0.03731314933893957,-0.03741048205196969,0.10054497192031678,0.09004990961416316,-0.2818842494262316,0.1356487559389321,0.0012561067981558117,-0.027971942754748926,0.07618782570889733,-0.06205528738326315,-0.23451857567874324,-0.09815790388984355,-0.12263546576565929,-0.06316425265129236,-0.056839093606986524,0.06427826535279406,-0.0912387637509031,-0.10386134785313061,-0.309000075350366,-0.3583212066896857,-0.41720365678539206,-0.73081199756145,-0.3590414163533411,-0.4603497603116698,-0.3124706518641595,-0.10932209859115048,-0.081635937952447,-0.019354926252439217,0.07738187647761186,0.09824419589395592,-0.07019449064838292,-0.10643765750991191,-0.20469358146892114,0.004233801078425192,-0.12622741833032525,0.12837039375947334,-0.09278838127424043,-0.13148741320086504,-0.05035012630223969,-0.29385439432899785,-0.30222580502774365,0.15348229467506275,0.0073377683977812625,0.0028328503697694065,0.017211826817362618,-0.033327468191116046,0.07992689153074707,-0.30017219151007174,-0.5331689342739969,-0.363980155722859,-0.11108317367680427,-0.09283718748005465,-0.050152675937499676,0.08321269636012042,-0.12636660634355915,-0.09960605552160437,-0.018976593392749094,0.06322135432881933,-0.0366024679692159,0.12784001400387976,-0.013755483611405989,-0.16052056042281765,0.11599338895093343,0.08777811931676005,0.1897006905468016,-0.08594114071009461,-0.1958185716043565,-0.1647078451126584,-0.17569648901377202,-0.20729638400089503,-0.2561409665696465,-0.1992403908373224,-0.45123337791104656,-0.2445785899591409,-0.5068410710797712,-0.5143931300419083,-0.40971994190764083,-0.1538839401570321,-0.028386158349427756,-0.002701276646094158,-0.11840845243478788,0.0905304203489914,-0.05518189979462572,-0.017632281600861718,-0.19180242423389107,0.0503818157492695,0.06538101931503228,0.2031153732188276,0.009491321010151167,0.03332730793696433,0.06827983063054281,-0.10797764791546179,-0.18075941632571507,-0.001423723607480727,0.03278692381555313,-0.09848204258820135,-0.2947591830639912,-0.2488060135852966,-0.22294547411378351,-0.3897936896002322,-0.33411698670637574,-0.3282414031648776,-0.3161888840886094,-0.3862025040189202,-0.3685865433651953,0.04802352862063378,-0.1127352976177024,-0.028989161487282925,-0.17705278670923874,-0.04168285207372427,-0.12549040566850797,0.028622762942269706,0.09370615099953693,-0.040001003370388775,0.036402052395904674,-0.04150330053505897,-0.16239031828916348,0.16644921621571038,0.08832582119336448,0.021958697146266325,-0.07099406206487364,-0.16831867564206213,-0.11257630239594582,0.04750206612415492,-0.057017836306901486,-0.06770140288714308,-0.1583704953076349,0.09413382810362234,0.022926654413480078,0.06172949194605314,-0.2756090354218063,-0.3443806808007294,-0.19599807642920702,0.061543448559138396,-0.0507802600988469,0.04840691885220219,0.035802261850783494,-0.12720860486944954,-0.152683316703334,-0.18409697045058704,-0.09051364733926853,0.01684487260259163,0.08180173066620207,0.054704853333226215,-0.038571575149017705,-0.11754351380632357,0.03746540210255082,0.18745902835391573,0.04851829652219366,0.19509204757740306,0.11575084605060486,-0.018822263321561887,-0.057813883836632926,-0.17309494975453155,-0.17461063189340473,-0.11002580912918855,-0.02666198944092948,-0.01301667203047682,-0.017102294711476392,0.02434684712814414,0.026261373618566366,0.03457073480505397,0.08171006545017367,-0.14124165984505238,0.12272391925649774,0.0900297569939082,-0.07377919461299563,0.026454040929571807,0.16664538712511967,0.05861327504281898,-0.06795685765774603,-0.121364875940782,-0.04328478923105664,-0.11323202350588128,0.11402901937407812,-0.06103826993933797,-0.06249184984498315,0.09697166037334919,0.05516902755662663,-0.03711028074542665,0.04711594849562008,-0.012273484785515971,0.03335550090499733,0.027250631766355372,-0.12643184935925936,-0.06679590121348282,0.12840397037662102,-0.052194111821964574,0.11537814310215924,-0.0910437078221928,-0.07804954242807452,0.047073795306654766,-0.07118685866063257,0.1653659879585888,0.11184343039797413,0.17457784236462942,-0.023701639602112162,0.006716666359206525,0.14315855499112698,0.09295650877206256,-0.19975382868365246
0.08285853195882163,-0.08292693637173791,0.0037737856994072908,0.12222388260687607,0.20764169090084977,-0.1328939651851579,-0.06164022317201436,-0.0715243249813561,0.2540410113017104,-0.2299757547401436,-0.08624884730966516,0.11534875604006505,0.022819741298945297,0.1292688645894099,0.08756480099540616,0.059893903556291,-0.15091270860631284,0.049536974671240984,0.05887888095941731,0.1225795647552947,-0.18477969397004057,0.015041993242359409,0.03070783230104798,-0.13322019305444383,0.023756998835793963,-0.09322076012754606,-0.11908052602641618,0.17233787762667557,0.08019018427923004,-0.07018413419026812,-0.10197513611344201,-0.07024741483370076,0.014532706835592931,-0.23827983721901586,0.11042808939035702,-0.056581631169389655,-0.0992945790224,0.029595697747082168,-0.24633884451548624,0.04548477161633798,0.015929397609956958,-0.25795132760635153,0.02230232043294557,0.04738769857197007,-0.0794411090202222,0.007992819441575096,-0.008076033687269309,0.00574679181033963,-0.1363655732949604,0.21586522867984617,0.13337993373754214,0.003945365657913442,0.014428776470441725,-0.00861410774201457,-0.02598328494209315,0.15024396673676416,0.117716634075307,-0.046989064519217465,0.046303582142224194,0.0595143941698131,-0.02321424740241764,-0.14498764300104777,0.164894059062626,-0.010570857179897182,-0.04321367535658407,-0.07366063790967164,0.005862109381605722,-0.2778902244072714,0.12122316766970447,-0.007231532699487813,-0.17116777594557686,0.14018997508085765,0.035861502226496526,-0.11190507256977354,-0.11095497530632191,0.05424085523926303,-0.11790001924951932,-0.025879090246929703,0.034551266887389034,-0.02315343101915471,-0.0429414023457056,0.07836225598928656,0.13489261303379435,-0.05426474188156628,0.0909740188232513,-0.005982674520540104,0.1353117317162971,-0.10773433619162195,-0.12467888042188129,-0.13547867080579543,0.08290711867167432,-0.04575231755851036,0.1330625937022942,0.024522667150686794,0.04477675877882422,-0.3129241593972845,-0.15026984164036405,-0.0774555047003232,-0.28073591686216126,-0.32195204918392634,-0.15093457110848413,-0.262945181663581,-0.14310494485575034,-0.22923269511049263,-0.2196339071116818,0.059417959583509865,-0.11341768592143989,-0.2277157260722759,-0.09332940729839119,-0.06326094289730713,0.06164659007735875,-0.03287628599616034,0.03553615474432647,-0.1266838490345137,-0.020068191168256214,0.11776412974929536,-0.16209993423597094,-0.28294278227382075,0.06094627985495105,0.023058188185715436,-0.14163252644035737,-0.35860185908188436,-0.16552200690761376,-0.26406314265474295,-0.06122379167859979,-0.019876074921388532,-0.18468669791872327,-0.3039132323620211,-0.19025867447859504,-0.1984733757295199,-0.10749085417711925,-0.1965095784606026,-0.09503299247426539,-0.1636945331112467,0.027160005587599644,-0.10560897008132769,-0.10275969334961818,0.15007805147868458,0.07678668017783388,-0.0332854836011981,0.17486507280505098,-0.2932980646867196,-0.16533667028879165,0.06459416951113307,-0.02055288484597619,-0.06644000520926033,-0.13056578716124878,-0.14497013617194304,-0.24535481715070118,-0.46278413085908043,-0.44788970338107986,-0.3402760635171254,-0.39664189399425015,-0.3334067420071172,-0.1540838035957564,-0.4060873316827672,-0.33660123097641453,-0.3092190663812034,-0.47452916257130096,-0.30526709955938336,-0.25268573196194377,0.1562899218909089,0.3456685071424928,0.3061756042657465,0.20344220350191158,0.21980584528219588,-0.0870444504973918,-0.035051761624191866,-0.11978483487444323,-0.06694652242699549,-0.13590085724101778,-0.004332194567719468,0.08741822981319568,-0.02700195855250992,-0.19166641244115193,-0.20517288338567105,-0.37151340470116634,-0.44036213217520687,-0.30465341651883193,-0.4134304667899962,-0.4162357414341922,-0.42149149725656554,-0.5310011379776621,-0.5965504108945662,-0.22116009732466332,-0.15313827928487356,-0.2741762670252302,0.10526852998262916,0.11057853639451945,0.21738516127321447,0.5049453726754336,0.4085236837027395,0.35491577578978495,0.10092887927707342,-0.13577274001853262,-0.009661497144427416,-0.0017470464754119931,-0.1493656660680616,0.12253952784839921,0.04282586227797278,0.0745724316098632,0.2289820666279575,0.06695800456259181,-0.1817442731502901,-0.10737095531309501,-0.0038953069002830533,-0.20065776018108042,0.19664491937824416,-0.05555333499081736,-0.36240406645215945,-0.5303815523748407,-0.7501538609885059,-0.44432032951277534,0.13282373433221367,0.3315809132005318,0.4239386965994562,0.45200489160461477,0.31373024385874354,0.5096874145167714,0.5559060248673762,0.4198692643413151,0.02722133447125409,-0.009093893392060412,-0.07505068845001821,0.08945267303206236,-0.03193778792206901,0.08512858210995294,-0.1024821123743436,0.09141542611592768,0.024568781386911726,-0.27029852058832465,0.07285276473920736,0.3447026638331967,0.08214724641472627,0.26161656213640316,0.2926474131530469,0.405734533928031,0.5094992477593893,0.5287956726510611,0.10311530333612347,0.13497554647107415,0.4937895316308119,0.3436590816517884,0.5912406215689828,0.8521082554340514,0.38171058422349374,0.3815733433806579,0.4872222272466451,0.6434957647136708,0.232169212493241,0.15646443513508115,0.11530251917831243,-0.009325164974992018,-0.06115264986880027,0.06326075589157651,0.0644652904300132,0.06887199971062243,-0.06933516974934133,0.05285998756458459,0.02885820461950081,0.03674786559705732,0.18287492608350783,-0.09998040157972118,-0.11345938770875076,0.2118361766099134,0.38800702528223224,0.9160289392865334,0.501760369193347,0.6919406655718956,0.5286778629878093,0.4122938927575578,0.25543804686178284,0.283098201634667,0.30828329224580614,0.19767352963060347,0.4992064666647585,0.5065197975334332,0.32602419318022374,0.028056545257250376,-0.020468637058241326,-0.09555473887824369,-0.17687150886571223,-0.015192820912610993,0.185088181439738,0.07154014615136087,0.05158512009457733,-0.23411536881111478,-0.30758166389455804,-0.11805554648444633,-0.05884371847303188,-0.5663122337751428,-0.8486541382197655,-0.6590713193366945,0.3587001596793785,0.5093680064183626,0.31802896348022197,0.12402568552918287,-0.0821504095182714,-0.2564714506542899,-0.36729478589734665,-0.13437462687215085,-0.3158845395528835,-0.2728661004181186,0.08766745195495404,0.4231641082650107,0.24446018557265364,-0.06208372859203281,0.08423571336261855,0.06954704867751318,-0.011710696300430336,0.027405211933662802,0.44383062764986336,-0.048767687881804286,0.007929937412471055,-0.44863688787310635,-0.5218319154535536,-0.046080170328006105,-0.1632182226943161,-0.6602755630569683,-1.010946498975483,-0.5551415599452934,0.2991131154078966,0.26265777169336724,-0.18491999409602208,-0.22521583668273146,-0.648192499134578,-0.8752056620192504,-0.6020515182854519,-0.9151786660981827,-0.3802904093867695,-0.5518780711605343,-0.2844495956079848,-0.2091028177502288,0.08946064142918207,-0.019799741246311866,-0.055358441209055996,0.12074491454356323,0.0609029571567654,0.009084569307744574,-0.1551873509497306,-0.04687844468982031,-0.223690668329426,-0.34365508794679306,-0.10020541289655815,-0.03307190087672383,-0.3101106764709739,-0.7750546788818733,-1.2230318980335517,-0.7150571900735516,-0.6326885006593342,-0.4404992227720702,-0.2661477058850603,-1.0465868927576865,-1.2452503785970361,-1.3420664557602437,-1.0582847981324872,-0.794117179361109,-0.771492358882424,-0.5101436045334299,-0.6360385406144556,-0.18121956711001264,-0.16496218439607754,-0.04845430903191243,0.03686635350418434,-0.12689969422380729,-0.059362065610675745,-0.07764334681294878,-0.037008402166539896,-0.15357857580386136,-0.2105284776767536,-0.27251462937162535,-0.12422072770822762,-0.31770861747391926,-0.3123350369400007,-0.698981881308825,-1.1814388097507467,-0.8693634256659687,-0.7385153974689158,-0.5019004576947065,-0.428430675896317,-0.6174634115502559,-1.4247570549232207,-1.2233430998612673,-0.8891019356428181,-0.6175444362508606,-0.5738052034213521,-0.6426111020218969,-0.3861156809857103,-0.2289525841483901,-0.08963829489321211,-0.06408273310106972,-0.22386817719268987,-0.015973429551914668,0.14956907252164195,0.026312838971705797,-0.13419654507219733,-0.060243958052635924,-0.07407115039154907,-0.39969163606705005,-0.20700761512150898,-0.4851773755683073,-0.5089489438867457,-0.6065077660878109,-1.1157210541177265,-1.0312198797037753,-0.775732297525454,-0.07251821884349778,-0.27673972717683826,-0.5065229548883776,-0.7078276116095517,-0.7356373996428428,-0.3791554694750671,-0.6866110093115744,-0.4723426143585729,-0.3269796473512968,-0.4418362367501022,-0.23300753881930494,0.14621898568219233,0.09027522271881272,0.11839777506354346,0.03398900285589949,0.012421758643968855,0.04468401343736806,-0.13100670488746435,-0.07860616284974856,-0.14225583011478873,-0.30980695754396476,-0.2941650901307618,-0.45131223116206676,-0.4388432524877484,-0.6486656977987458,-0.748851286202249,-0.4784492754281545,-0.2742950875459277,-0.16771382864553933,-0.21609884095315926,-0.2827882247262801,0.12961186848955433,0.14850217759186143,-0.03378738801829772,-0.10622247007638216,-0.08065384909195832,-0.025067653202051,-0.19073301352029304,-0.2779101712164311,-0.053064092038157526,5.474347281849828E-4,0.028572670569834768,0.06221249679823741,0.05515582680162456,-0.14949897489737313,-0.04181015456844769,-0.1573681888308741,-0.20325992791461758,-0.14282433595316496,-0.07504818882003708,0.03538295223342396,-0.2721521581409937,-0.42595995901162154,-0.34883250498813034,-0.19170911087474596,0.19202858589612543,-0.20105381809323022,-0.30923513688138987,0.21136177753607457,0.40280285925654485,0.4528847191099743,0.12339526680126169,0.13064263953791314,-0.05655816329251636,-0.24839303110766106,-0.4754215893870566,-0.2558537441676734,-0.16687841360050845,-0.022038221031211145,0.09355836072302116,-0.04223049510067222,0.18363191730739228,-0.13617470674730459,-0.1750075031284076,-0.23876601156962332,-0.10313686413323851,-0.06245013482574265,-0.036614869859214354,0.25119975781695497,0.22926974054020405,0.11687755685833578,0.1553551398412107,0.3857723369903368,0.1517664470441488,0.20080940872934547,-0.006530423727752609,0.4745748630526334,0.2545740711587635,0.09882542614862476,-0.17767914174331711,-0.24312672589088652,-0.4389514710289945,-0.40716267153907487,-0.2674455091410333,-0.08139753867820541,0.07845710205700017,0.036446660356546944,0.10696199065495914,0.08734973079526705,0.08882472997122479,0.04989944648301216,-0.16857663939818898,0.013672561715057485,-0.21104768199168694,-0.17099250179704503,-0.07207870477351135,0.09429813270600762,0.1962121704169104,0.2889409590516293,0.21390454356273933,0.07378304488908222,0.16726923890768927,0.1854079992050192,-0.1064729666961536,-0.20552649921831131,0.010788827792225078,-0.17294738226157091,-0.426498154532714,-0.5194514829830305,-0.6278239739254892,-0.5207772752053234,-0.48976531502214443,-0.333965526311357,-0.3058384463551914,0.17774736273671246,-0.10816463670225158,0.13657802173610473,0.055447922056460236,0.027590067614342507,0.005656515962825158,-0.1436046048688548,-0.417260603962495,-0.2519295241225784,-0.38944114221431,0.0070643620744184595,0.16782193526284425,0.008168809826837759,0.06878288723362201,-0.12693897290270736,0.08949590169105269,0.20934359763464414,0.14991740649340757,-0.05705512308009677,-0.30346127131524536,-0.684724067805427,-0.5865730980648032,-0.6744213571946583,-0.6178779623829979,-0.6083061746284616,-0.4430199966238192,-0.1337846573213193,-0.03603806913526619,0.08198839188896227,-0.033709616576470154,0.0939435414225916,-0.05705232606596176,-0.03155032660329393,0.04716299724888964,-0.05084645933919038,-0.3172010532290263,-0.2824262933230121,-0.06694296901349199,-0.14729053318351337,-0.4320299207686118,-0.3585177951466913,-0.47966946227523105,-0.3350028268649802,0.019203380998745516,-0.043175290888777064,0.14898371439541444,0.0029750240393536602,-0.10947928178974649,-0.8087504525185434,-1.0056467947147298,-0.634315489846235,-0.5684985504362018,-0.44974373961914094,-0.36726405804979445,-0.25192815923032735,0.061986702380430365,-0.0012057198499243846,-0.2365718868798361,0.07490261285067383,-0.10018173048238245,0.02688332895137507,0.02674553698124558,-0.274674336251995,-0.010596176594071532,-0.06317019211654465,-0.030007228157770342,-0.1864645309058504,-0.32146820179068086,-0.6319113554895851,-0.5718672412956156,-0.6495976870368524,-0.3885356561003,0.07473857105213222,0.29322878453948087,0.048272781840707005,-0.5005770764096865,-0.7480497728312869,-0.67201719861271,-0.43201141869482884,-0.4072244724835073,-0.20102589644403018,-0.22321774620662974,-0.223360828804548,0.003929652226512292,0.01232183729797474,-0.17242517519031747,0.08590183671253664,-0.12541929351159967,-0.008442822242987242,-0.07584493761744349,-0.13477961395208132,0.05280838241650134,0.0422320595150536,-0.06228538698170389,-0.14680856092735964,-0.17561998235972984,-0.3835877787907498,-0.3786581126842364,-0.7458458186998912,-0.3659284841744741,0.2164993984925004,0.29465208183272246,-0.002924898166442159,-0.395591890739069,-0.2490568019933102,-0.36378857171320816,-0.028359435433558584,-0.3546280683496161,-0.010384912245438452,-0.13202918191460242,-0.01926738651606953,-0.05087074102837524,-0.20569577623468382,-0.09371964299773265,-0.010771922348707136,-0.02407170229277683,-0.05535338667664791,-0.0037195698925072324,0.0946002420945728,0.09649424726739689,0.3514747648054897,-0.09624839935356959,-0.2389990453221684,-0.044284514399586764,0.15784553488787678,-0.03132395522947355,-0.16128129929462418,-0.1653233840665183,0.4981771079579349,0.3589345634647983,0.12596520981125497,0.14032512429326668,-0.20032185723122317,-0.4574070553692587,-0.23383943287686534,-0.21675913249712978,-0.016680708636798332,-0.09779547953040492,-0.0924118021629593,-0.0036356953348186043,0.03928789876379341,-0.07853150118030329,0.048287303345620695,-0.0031756224132319004,-0.017362377914668287,0.02190005840914712,-0.019657799642322005,0.13681996544937408,0.0918858499777599,-0.060870572379477135,-0.040596710294770556,-0.05309446586564849,-0.12261210633072879,-0.19655539512443276,-0.34990545249192506,-0.18921279525311066,-0.05965550896039345,-0.26330089569523774,-0.0479278606718651,-0.17938216237886748,-0.49208810983320234,-0.32044672277436964,-0.2995599594358782,-0.17381866296713364,-0.283285924454935,-0.10020890034323933,-0.07234455688709177,-0.07764260275895014,0.00464823747237385,-0.06358392262330097,0.12708492714804015,-0.03236273442226562,-0.07982712754300249,-0.05689958160322442,-0.04360999385646683,-0.07824506595835191,-0.14365363237428677,0.1819758382338428,-0.02408718503203949,0.0030557648875210964,-0.20647963937813038,-0.2844583871118076,-0.1380406663470863,-0.1639387080770307,-0.2595677437676336,-0.2468148372449985,-0.025403538175822436,-0.14206473313722642,-0.31441164706745844,-0.1136669312585142,-0.05706276213573311,0.017307614454696887,-0.2537551570471548,0.17939008351769328,-0.16803110018149145,-0.07065499298670926,-0.03314442189748012,-0.1459189830086265,-0.07593144920538696,0.028944188138346545,-0.058505308805441254,-0.10143381003628953,0.11833459633387752,-0.08655583672358988,-0.08318502611512339,0.08679792063136003,-0.08163854634555769,-0.11084094005886379,0.059915108267061694,-0.1907167755453549,0.07977663014181338,-0.08508903385291176,-0.10673884879660697,-0.034797030533721435,-0.12862641494526614,-0.0959883435093297,-0.2104061495048419,-0.02008045788508022,-0.061924951210870424,0.012695614873836896,0.03537943150493571,0.023548934223248157,0.006420352002614893,-0.1577842518551305,0.18314031754466614,-0.07334932887619276,0.10591190233451266,-0.12490424246630998,0.05621908282429839,0.026934942655338086,0.028354853393333462,0.09741796947198547,-0.009250602431571666,0.037955938421006696,-0.1038667340202546,-0.11105388814921599,-0.048517847215974824,0.020822564222536134,-0.14459714411297725,0.06561310689058686,-0.1602163095905829,-0.017118783778206945,0.08435446966764362,0.0913902595094327,0.014795059614177897,0.13723404073551396,-0.0015916529369375985,-0.09455834716133953,0.04745889193586296,-0.11320605662905754,-0.13939959823100534,0.05863218944084455,-0.10310636560632123,0.11850910526684269
-0.014797968649337955,-0.11197475165601577,-0.07076223691308468,-0.003289197623158943,-0.1455481382690258,-0.0735076564644226,-0.08134078474633548,0.06834887078972511,-0.2587241350605709,-0.19646969609838252,-0.017219636880154137,-0.029480426326540386,0.10952738882533206,0.1846978067724683,0.08232415091878933,-0.0657011970246868,0.03686947535414368,-0.02656374627993251,0.01446197926949615,0.1327613614550443,0.09596627571142514,-0.0993422804994236,-0.14699146012897174,-0.1298105553641042,-0.09238929398062513,-0.14610457464818186,0.026880102588847165,-0.04899330862150613,-0.02264284431900619,0.14194623536710158,-0.047136438580846075,0.10641213295013667,0.03455051131593163,-0.09146146365805345,-0.05655811570938749,0.02846804630241529,0.043624936595380824,0.14024948428867787,0.020205328481380604,0.030462948247776265,0.12809524765376779,0.13054008763422248,0.03524204284025933,-0.08083095723430324,-0.14530962627776198,-0.01516682604414695,0.09330443940780829,-0.08785378513541653,0.135637056873277,0.12170003841746901,-0.021908614705257175,0.02913411761939393,-0.05555115194266808,0.03224310751168072,-0.00967973689069289,-0.12608251694477135,0.09033234993508484,-0.14363613328688593,0.10436287585000695,-0.02242136885175369,0.036108372965072855,-0.039471399247062125,-0.15085433454190744,-0.09378474921945022,-0.01332795424923956,-0.15644999301774237,-0.05365067026897798,0.07333588080955944,0.2932973809850724,0.1941401109567199,0.10646489058099154,0.3322312189097699,0.14140793055567405,-0.07349362685796293,0.09034424245198248,0.11342687914652974,0.05096657016386499,-0.0034772214819337225,0.0889076272738564,-0.12677916862773697,0.04716553162961368,-0.16051182152686191,-0.09425571871930134,0.018017582641769263,0.07015601855303015,-0.10522711542672743,0.1802483868290411,0.0697709496394294,0.03607551789579392,-0.0026260762354572403,0.13993180620593676,0.09584316961604818,0.01395832340674272,-0.023078296279190467,0.03001724540937658,-0.06837081748624688,0.1268847791533823,0.08314736094964244,0.2228923460022703,0.09653433060971693,0.11795193477068011,-0.0982289176306133,0.0858152787380796,-0.07628317676258711,-0.06752877954340882,0.05791336403060688,-0.10975779521704075,-0.0822756325684414,-0.0612260498453992,-0.10104003824893262,-0.22455048767118113,-0.04063686547676321,0.04604410817280776,-0.32639863236079614,-0.02400639135828519,-0.28430046608856635,-0.06309591468642152,-0.045210053620428695,-0.04957054673893857,-0.1223352118013765,-0.061829136396977555,0.14390466725666246,0.08601340852108068,0.09415908819116364,0.1071460782136086,0.22247830869199797,0.18291875730397897,0.18487519764580804,0.026774190002840214,0.005792866920920184,-0.3395190120033412,-0.20369868121995924,-0.31786608387645454,-0.10372070761125898,-0.07463482294449925,-0.28083544570880986,0.1331275313219922,0.05068392524293914,0.05029600460672918,-0.12311773905483868,0.15772720418856936,0.016128762254528337,0.1098463822821944,-0.048886187211837635,-0.050934082154356186,-0.05476218660567473,-0.15184386102517727,0.027503150153718032,0.21122263677224612,0.2983350429518438,0.17763027066373577,-0.03693791822085645,-0.20585551246774905,-0.20098684017802176,-0.14250000026945553,-0.2097020913387174,-0.3236016861916868,-0.409877998709346,-0.5056730454346828,-0.26750002724508165,-0.22113401406966804,0.04045714556751406,0.09582345340322242,-0.10372732829384577,0.09696835157978967,-0.176238471030107,-0.0687791731402301,-0.013514865688336946,0.1701889693100896,0.035327434649556004,0.2167671372355024,-0.09412045538593489,-0.08573010365184586,0.14581501182715495,0.1788448364477,0.136102152438406,0.38126078567070903,0.3950059801651869,0.21741297773866303,-0.19916994066478258,-0.1888041967955245,-0.26765536224928377,-0.14596852295679597,-0.1593923420700752,-0.15945896682372648,-0.4774997764030435,-0.18583243551416007,-0.11082803148819963,-0.1681605826492256,0.13284529453891003,-0.0559533862544197,-0.08014664226212102,0.09418535178774295,0.05975137776498399,-0.10219812778502797,0.14509314000996076,-0.07116817656220094,0.01718888770269179,0.06846704560702259,-0.053010913739753716,0.039547312751690045,0.11819284494936842,-0.03986651705800525,0.12397862378492736,0.0748552340211824,0.09317938147474392,0.17937314178394242,-0.5620153345181693,-0.5299408264601705,-0.7073081074727268,-0.4541764123875432,-0.2876357078969354,-0.10591679987418232,-0.07293800711789819,-0.35818618846314576,-0.030229380371429165,-0.04400964290847847,-0.1712921910040355,-0.19702083514577118,-0.03477970987888454,0.012078781010020119,0.08138979259410266,0.0460657828218521,0.07978905519565392,0.06838016276757597,-0.1116145749636601,-0.0019319777459546829,0.06379010168785317,-0.10971860963121789,-1.603687716117058E-4,0.0200741240222723,0.42642603471778623,0.3539047411625147,0.300395198600463,0.1507635000057601,-0.5099090679770126,-0.6078685582709985,-0.9421448937632141,-0.7470211890847501,-0.21387692915931159,-0.07607994785949515,-0.4028161485294455,-0.5345310196990087,-0.29166294989405284,-0.2730185673374347,-0.4354608171763666,-0.07412367937326536,-0.1320644684328658,0.06152571393073317,0.1417865094138509,0.08364608026003013,0.017287784746250295,0.004704642401149626,-0.11098360764029416,-0.08071876881622406,0.12038828891145334,-0.25394791006161804,0.09513377615157523,0.2417573399773391,0.34087559532722334,0.39301598822705236,0.3231101791882732,0.28323406225523895,0.03107918592729141,-0.8403859336757318,-0.654259632657142,-0.7584697559469106,-0.5909448194522265,-0.39839334329179066,-0.3652669987442965,-0.5737771699576402,-0.4649295808433999,-0.38358350560320015,-0.2438320729702109,-0.051370473024793716,-0.4099450130668742,-0.13338400547269566,0.20373927870245398,-0.02197486519440513,-0.14768680571513954,-0.16462291979959934,0.03981244964016767,0.011321391064971004,0.0906718674838765,-0.1036381244288176,-0.045064468915020126,0.17762175524421564,0.24403009353030305,0.35115686760903664,0.6514616359319274,0.4909441929991483,-0.5942213289633497,-0.9052818360341032,-1.1322644929910883,-0.5345934683924476,-0.33551891237460607,-0.2671200525234637,-0.36710290640555787,-0.6599093888524453,-0.189397176375122,-0.06779946200041115,-0.06977717975354164,0.21830423987992847,0.09763776077249799,0.3119312233153052,-0.03578603336272041,-0.04400499185713499,0.20068851889693692,0.10326838308655767,-0.023832973773714683,0.053666731111014734,-0.14549046698803772,-0.23948497481952002,0.009256137185356597,-0.05562113578302946,0.19710610567827663,0.6870511787989108,0.7018243929953557,0.32206735068540226,-0.6113684589438286,-0.7269402958561667,-0.4912775013973185,-0.12094036482593375,0.21148778191812043,0.4066060483072369,0.33203500786098833,0.28961076101942806,0.1627367258002574,0.08899356641292511,0.3803388784026227,0.5201694695061011,0.37789993977411024,0.33366941081958573,0.012087835403013397,0.16568192138067944,-0.007728533884814045,0.1340320406899643,0.07041443136826898,0.10093270898847942,0.2060936061609214,-0.062324182539205616,0.18768676205136992,0.3450956538657221,0.5195321931202517,0.7254478166867366,0.4858614357448427,0.04791648374379516,-0.5939054020011475,-0.6039896470516513,-0.6463053451695869,-0.34143855173054116,0.03268212185329288,-0.0924173089537447,0.27131439237830246,0.26071118360292117,-0.023207886193080413,0.08127426031130099,0.26607101531185845,0.3979133247639196,0.42741567333940583,0.44959774575534583,-0.05202202284034506,0.1542581290345871,-0.11395406007365058,0.08206760081108772,-0.0503369856657539,0.013243888738183931,-0.04602127788968987,0.15055540125876346,0.3228085010085154,0.5722384222209995,0.518829042711692,0.5574386390250247,0.5214547641640876,-0.05321288793707621,-0.6273214501259556,-0.984637941564472,-0.834140981681641,-0.8886872062982306,-0.5906510895603094,-0.39306638156625684,-0.30068148154257207,-0.2075928955769084,-0.010815238042869397,0.03165234368457156,0.19696514950945815,0.2046961768803183,0.3675312745961407,0.4073099481229913,-0.02130463451173448,-0.09785939990074839,0.040030143323088824,-0.16910513683621753,-0.048280439666409714,0.013764763640540564,0.11476247869723048,0.1123768360584374,0.05693546850598807,0.41429490756298964,0.3578890097612332,0.8839183341327318,0.8920882199114785,0.2535864101904135,-0.29122166887497747,-0.22710141816876545,-0.5088571679701444,-0.6062291972968962,-0.6289278862035105,-0.5016976360484469,-0.42862181614159267,-0.2530367363033815,-0.16853165160355665,0.042134325545142445,0.1487338666705781,0.5606114730044321,0.5051432287605334,0.3570917364476074,0.04274310614814815,-0.10813552534569386,0.021910149789616935,-0.03224491155352142,0.07473283783171435,-0.09859719190074424,-0.11627577273834254,-0.13692451042285023,-0.014259049141772043,0.045635299627265175,0.4566982605296128,0.503154163128815,0.41424426748641235,0.11542670603490982,-0.14946499537763283,0.015770111874785282,-0.36999899406676406,-0.33523381943966685,-0.5401664299985056,-0.49596006739304654,-0.5474294008990269,-0.4774580153152784,-0.267198855259501,-0.048367282069558974,0.008162882010971638,0.13531836737475367,0.3945033783678906,0.22829629911883886,0.12160097224450413,0.040347172309286465,-0.08083962889885443,-0.1804156127563173,-0.014800594383497153,0.2507030820857717,-0.10527432867818337,-0.09083325736772842,-0.07500521615369617,0.17904862012376968,0.31475251837068585,0.5474704055949371,0.2980940412304009,0.15123782882034573,-0.22055642920011737,-0.22808396716935989,-0.3867579228274559,-0.27077311087484046,-0.4075397578482483,-0.49155154323135386,-0.8357956309126552,-0.6572496460276241,-0.21534009001948526,0.005964999711511676,0.20705125738047675,0.209418533144553,0.3936741123140252,0.2999921019376018,0.06787141681459342,-0.057352951628978334,-0.18129363728946118,-0.07177837870942487,0.15354364085496827,-0.05741835951615165,-0.11508970999372131,-0.22693196718010755,-0.1538215950715085,-0.1591844527510615,0.3931936306226686,0.523990118898626,0.1890895546127953,0.2555016186197535,0.01920502293470877,-0.32411242434430515,-0.45553958545923806,-0.24602273025524476,-0.5452009060801399,-0.4158394745984841,-0.5615432616394427,-0.29753073075552583,-0.04103397197583869,0.3230576236099761,0.3619959629572421,0.26991782060371483,0.13414145481884499,0.4405232566982037,-0.20880978700819894,-0.23373634158091824,0.02005177665868844,-0.05748487528645734,-0.015694831798119292,0.07525364571940599,0.11043283909020125,0.003536632890344419,-0.0799569531880251,-0.24395527070962733,0.12798026428332598,0.30487584907107385,0.17439735960072625,0.14808938452176407,0.14222247973555266,-0.2664534136884016,-0.22988901346653443,-0.40304620898182686,-0.30989002232731067,-0.43843784730963636,-0.46665501229518547,-0.37893729619599026,0.030049042840114195,0.6094723147695785,0.5045297595910433,0.3605739015273737,2.115027699141535E-4,-0.5131634666557293,-0.06697202897587944,-0.10630321829449209,-0.10289841954337234,0.023613253393528984,-0.06238155635634048,0.08106909849191708,0.1283631544651366,-0.11560750970289839,-0.24146807903076387,-0.2203289746371417,-0.043808559253604315,0.2438375150532608,0.09034052180452995,0.46454743261459763,0.23653839644063868,0.13298825481529927,-0.3221242982050839,-0.34593641261014535,-0.6134344713942494,-0.5166821804174897,-0.6370991127587841,-0.1750856920290166,0.1669009647878794,0.5439832307099562,0.3781382454335043,0.40401687080725573,-0.052998810464302645,-0.5295446877225769,-0.12947160613913056,-0.09304702627394397,-0.09547853758726643,-0.0933567889973317,-0.17818568865441184,0.09031279863242662,0.12957312371043903,0.011990152613702624,-0.15774524174819402,-0.26992170966161183,-0.34002077565636424,0.26985152295666154,0.15383127551043665,-0.19997961377086293,0.13106694393126483,0.21331432461082714,-0.10521596681237563,-0.1612454782435034,-0.5224899207649988,-0.6487411141287703,-0.5005561647501796,-0.14788458957281966,0.28098600640131943,0.6367424649938188,0.39815513662581214,0.6557026865876866,-0.1754532337898696,-0.4889627570868322,-0.20087533069486246,-0.115307518801227,0.24929862826539523,0.08345851819863809,0.018400248680402253,0.04435523172044035,0.04565764639752677,-0.07235153800981359,-0.29310762463802387,-0.25355745022699383,-0.3318588780999119,-0.03311089285152395,0.03932242596969537,-0.14745648624677524,-0.028181894731504665,-0.11976947215776702,-0.21176312159106364,-0.30922087723287767,-0.38064580776511253,-0.47765931439135656,-0.17057190840212916,0.4528347646013358,0.19807318104213642,0.33570552669243103,0.1376326449938062,0.18582044266226672,-0.23373491164985893,-0.09258640207414645,0.10696691154319207,-0.02081879226973018,0.1033312704416421,0.0520849873826383,0.050652576392893583,0.0360341504758235,0.013174060214911664,-0.07844505187194417,-0.08638858893193894,-0.1791870983950251,-0.2917340231672442,-0.4690058097362301,-0.4589001901867786,-0.6280083938894515,-0.4512223198277144,-0.17253206679203217,-0.33982981566977855,-0.29298078264792987,0.17012972541613075,0.15141473188580903,0.25243081247549987,0.2731745657742376,0.3695020178677311,0.41403133152534755,0.1328556919297468,0.20971515820846678,-0.04246483325064603,-0.09783924733393345,-0.06142971907803879,-0.005062521843259003,0.1249568148153253,0.04660797176780571,0.06495847191766786,-0.09172888906250047,-0.061456377162533764,0.10089210734704535,-0.014404731982060373,0.0915015313369988,-0.34053216058536906,-0.18000406697054183,-0.2075142011450321,-0.35599165445687864,-0.23418869599359968,-0.23912900292481734,-0.2004421768148274,-0.15077803282106922,-0.010472502628247723,0.2743985258649183,0.39140845799515445,0.0716415340509551,0.21713226521253084,0.1512455056423162,-0.053053210229913626,-0.09785420674157018,-0.06891919891751087,0.18916681689591647,0.01967916034580039,0.13946209234430246,-0.047445974423773386,-0.105754054151966,0.01369603756017713,-0.06258350406022628,0.1459378452060104,0.2578414600314364,0.020477504627498803,-0.14030148256947828,-0.03841476347842439,-0.18216923886284325,-0.19145068243227872,-0.058418754381897794,0.12337849807393819,-0.06450423872473333,-0.001973563292709891,0.05612512901627643,-0.005593926417411987,-0.10402758868177328,-0.06224399727629599,0.07813501046218876,0.13619433142227091,0.2427355864621307,-0.04153797900510812,-0.05433168849819266,-0.11730191504686126,0.24846125958935092,-0.14658175949550445,0.062382444904336934,0.07843303679808762,-0.014385540767442433,0.14805287060384237,-0.0829810807611516,-0.117915220436246,0.08616829237731806,-0.05519142047147355,0.015030249659415422,-0.15108889103001194,-0.04758254531031286,-0.1438918139647147,-0.01548044674695051,0.009766690246677692,0.033563472912781944,-0.017303127216949467,-0.25873216541633415,0.10655797281084162,-0.10506582161530077,-0.049607552462125636,-0.22658299745180904,-0.08742274199767727,0.014206312780196356,0.02568099094982799,0.26998036077438764,-0.030106356882998262,0.11887226738172582,-0.12719220372266848,-0.036512116340769916,-0.04455395624932557,-0.03823421777167101,-0.13871453608505535,-0.022391281765889667,0.11670888414647389,0.13752362956955183,0.10805008910784401,-0.16935681360650034,-0.003560136730720253,-0.06020644250145692,0.04700609762512129,0.14157907965112063,-0.17247065023098537,0.00197816205375203,0.005165354874542484,-0.05887469242444427,-0.11719065066410671,-0.15777273274689432,-0.40516032545626746,-0.18436886773707095,-0.15865712782262018,0.23569784639256472,0.08692643417267465,0.03796838405807241,-0.06016443394023912,0.16826687604071638,-0.03987002315178843,-0.12621805591183424,-0.037007041328308114,-0.1278188200920319,-0.06006528917196074,0.06673846818221944,0.33987620712351885,-0.0049797469391879776,-0.16962993902931908,0.03603413325058954,0.1403676025421541,0.04792256875107897,0.005258614019352698,0.04393807622577526,0.07985814191173458,-0.06734903642741145,0.008356540240774528,-0.23111893981291703,0.15540038679580764,-0.08855872661596685,-0.07912410916938696,0.01524004176879975,-0.11505330354248142,0.04189227825185997,-0.09705457807680348,0.11760248978917481,-0.12490235233524355,0.046093834864872237,-0.10925336361276873,-0.08985447551604343,0.0891980124790142
-0.0462671556061949,-0.10030621636227115,-0.03861502613997463,-0.07272032819025788,0.06816173953626802,-0.11774857183960812,-0.010706263503430668,-0.05381550722118706,-0.01271065095945464,-0.0047055961839390335,0.02068748036337727,-5.165133853129936E-4,0.04977328344083932,0.02387041351702644,-0.07167961724946474,0.11464706193654277,0.11736851451567204,-0.02549479168518713,-0.06449716788942163,0.09133721663253537,-0.10505220904956437,-0.1222661663425779,-0.11450059297403574,-0.01963670177681857,-0.19233745626308152,-0.11595873999406399,-0.036805904381947356,-0.00730456233284966,0.13545904215654048,-0.12069730020293441,0.1547021048459502,-0.07852526544358025,0.02257209611296106,-0.15938227809512084,-0.006793106329501288,-0.006602897510344132,-0.14364815141324558,0.0019207915579325945,-0.10473918375454745,0.07377027075032519,-0.16635334363906631,-0.20228126592313836,-0.04979978978704548,-0.12680099629569158,0.09576907847766469,-0.21178006334535265,-0.013574519197129644,-0.00708878335185486,0.06645707041725009,0.017061463696005624,0.0295724501134703,-0.015594222076910375,0.1597558678927684,-0.0890946984724232,-0.06364214837020085,0.03791052007803047,-0.13615642893091617,-0.025792367067124015,0.1835807420284804,-0.1337046041958367,0.10781256387224168,-0.03198667232287225,0.06247713077503614,0.031089222497568465,0.11779312594443908,-0.09160016245897418,-0.04665818796984802,-0.06135041241293113,-0.003872900620918838,-0.06844259754672458,0.06969478944892049,0.05103423429578146,-0.14346203819263603,-0.10358662447381499,0.04546846438090687,6.996685851348158E-5,-0.04854860902951238,-0.00395427089001054,-0.1534019879950458,0.04572726950517466,0.24850400813445353,-0.14837368727144656,0.13551904034133677,-0.09451552388336985,-0.1123542044986061,0.1449085274055975,-0.09084878266229769,-0.03284884969006958,-0.07243426479779996,0.016119687541283238,-0.0024595538662054005,-0.15556730042816927,0.09504744082937447,0.008722443328768535,-0.14880111203824328,-0.19569538844800283,-0.3039293293177894,-0.21479441321620646,-0.09196843259314179,-0.13499752107271806,-0.03696313291313462,0.008973533537767822,0.033976040038907696,-0.14906833774131298,-0.18935005766288382,-0.016807676237939273,-0.22406722857134104,-0.11144309303395597,-0.09326419119714437,0.1267039369819174,-0.026652043951921636,-0.1475340257680159,0.005432435897972506,0.05964387334388379,-0.042733038347232556,-0.0834552276103522,-0.10036156133488267,0.03175970531136859,0.003010746488672873,-0.26146897063698943,-0.14457243926060362,-0.47066691479677075,-0.43587571549099696,-0.7825831010539751,-0.3953416548299024,-0.01611766849673696,0.469937309667226,0.5555483359697185,0.20513290763367992,0.07586642191114858,-0.2743402639743156,0.11356902978225562,0.051092059493766814,-0.11617049566165032,-0.25114924437099184,-0.40387028096643035,-0.15086497019628337,0.021713223742699628,-0.041380892934901735,0.029694183627418786,-0.05158853592589537,-0.03437029762853067,0.0750590310593756,0.05045907841976849,0.06539880147749423,0.03452533803015653,-0.25994730739915284,-0.48080964650389285,-0.6059130076030359,-0.6595323819192161,-0.6859887015796642,-0.5397133777208933,-0.2036401840375224,-0.04819126976567702,0.2662854390077692,0.5391810698696899,0.6898429988722702,0.4124712852684591,0.2135565887870958,-0.10973451320440968,0.22264335305777297,0.12953832595267112,-0.3379746522960309,-0.40233402635779747,-0.32943086571241215,0.2396233416011032,0.039094984393755694,-0.06435800042251728,-0.07204824004465728,-0.017654647992339376,0.14254254120118046,-0.11580131459680834,0.13719449877203269,0.026637160496369935,-0.3805993255232288,-0.4744845283368668,-0.6321163541547422,-0.844626447888679,-0.44750460519252266,-0.19393416449733875,-0.08682711869412682,0.019848511951473184,0.20422662124631713,0.482898505684702,0.5378776898101062,0.6975871994951015,0.5577719719052112,0.39386952896040217,0.19324954575589526,0.6639377471902054,0.07412856069689269,-0.10429521334858628,-0.2796604143521719,0.04636237713532989,-0.025833984478756348,-0.060239437533450756,-0.028083557774525942,-0.016140602223163186,0.029683921343172073,-0.007884310342688309,-0.11817539387381161,-0.1868183584496695,-0.348299057673143,-0.47432148443246036,-0.7325943977045365,-0.2981448840364487,-0.32795450731904274,0.33212456556236836,0.03035622240416136,-0.33383306564535403,-0.5803309140689278,-0.08139364205133447,-0.21967833880126603,0.24988372188660496,0.7328681051158901,0.48498758186886015,0.681241502880456,0.6201561625748331,0.5735172670124166,0.2592993624350569,-0.024890135411097174,-0.11488750477602475,-0.0778048837537416,-0.07813845471282545,-0.07823905097459385,0.029381388717941975,-0.018407186138730377,0.02457465646510822,-0.09308464703352717,-0.06475871898622843,-0.5672233994127864,-0.35406027597717304,-0.28570338620566127,0.05669862718907759,0.31309909853474555,0.4200139123291258,-0.28655832793385744,-0.4709152829455187,-0.6942410604025308,-0.5005030928667336,0.003525929146994675,-0.05436889003019503,0.2135635834297866,0.5381707484032401,0.46380664081811446,0.724340542924294,0.628053928209036,0.44387872332579636,-0.10372547087730351,-0.1492074455092187,-0.1556664696123062,-0.013245101687943623,0.0545735040867382,-0.03525542720430851,-0.024579593090422076,0.08090296289755304,-0.20216503797476082,-0.447050371082194,-0.3511412683578964,-0.27346553208455626,-0.04644430870645452,0.39859255037321173,0.2522753965522127,-0.1827508389620129,-0.8860505555796014,-0.6893608409922666,-0.6083815947159151,-0.749000281388889,-0.6305296771004268,-0.3402176455706045,-0.1618570100083015,0.5892927159885712,0.6433826781369062,0.40570143471539977,0.45613789008168026,0.39397787874291207,-0.14824062259391133,-0.49046322137988624,0.01733573525541991,0.04703349289855573,-0.14937187124829604,0.07046876491837227,0.0014040585032528705,0.05236614114925713,-0.017765377059554884,-0.16590628529763832,-0.21580619723170227,-0.1653846040913366,0.01092277924258221,-0.0519561006020581,-0.17368519063872018,-0.23928049268776622,-0.784103297259229,-0.7732726170823143,-0.31407948991990253,-0.9674524731073365,-0.6793592837841125,-0.39041704765037,0.40443236703266516,0.38860919182575016,0.39738299757566,0.6302053340293802,0.7322110220295152,0.8299228727714666,0.18763856986716382,-0.16512687840623666,-0.01572396435880427,-0.08604118706156279,-0.07698747306047889,-0.20571937278221994,-0.039773334367183125,-0.05953952406072444,-0.021851435176757413,-0.2877005791307029,0.1633434350228781,-0.1687400020183362,0.09401922425035417,-0.11955668105623893,0.23952500094356838,-0.019805806516061567,-0.6960433596913695,-0.12355816883139371,0.12617386357260607,-0.1415378606167155,-0.3621404094445209,-0.019844866157696678,0.4701516036106562,0.5501067588070229,0.6287411539139293,0.548384487720563,1.1008256497921567,1.053683578850117,0.4087915274258085,-0.09227465220995429,-0.03944281380412044,-0.011382976940385306,0.01947211516728745,-0.009014136614944383,-0.001205970568058708,-0.1830928627820358,-0.06998530676866194,-0.20955946391606145,-0.2502871552029175,-0.17937151433884102,-0.3004034073863642,0.015608135432247787,0.3276916548832732,-0.14338938283218797,-0.1931508761650315,-0.04899265633170518,0.6909048605500625,0.22322841778624739,-0.1317692646914275,0.13050710745142274,0.34991850628095233,0.49589023363047346,0.5099524967464542,0.6304801183867597,0.8959844782396909,0.7674396825900875,0.3911868390670377,-0.15264112719459855,-0.15713660333189866,0.021937453065084243,-0.14347522886411235,0.06784727091710452,-0.17621688926541831,0.021020112068224586,-0.20088301222632535,-0.11695448429805172,-0.40175124380287275,-0.5654605838505063,-0.5472552140275451,0.11230360409306087,-0.14477648715815142,-0.1244668956845582,-0.230634839905481,0.12212494406154127,0.3691864390956595,0.033593951110807235,-0.374160111631006,-0.421431174751837,0.15616278208742992,0.026949367033312428,0.09901711416015788,0.2807344590703469,0.5899529244176367,0.4810698579737224,0.2530959872869629,0.0335281856010186,-0.11543152382942136,-0.007918705907793517,-0.005733482952156471,-0.09626571683324099,-0.025590961807953876,-0.07945248086630793,0.13312217774011534,0.25414119986659645,0.0778449077338808,0.026036602521883126,-0.31275424420374853,0.1578994780258672,-0.09777639436919863,-0.09236275229681926,0.04416721275869297,0.216318793079441,0.15782633794695825,0.20280942820201955,-0.1752721254816097,-0.2699108069557303,-0.00451876680940943,0.07768367252416312,-0.23709012519929878,0.15896992382863043,0.08878693727087104,0.14549091901298086,0.32501811714164985,0.10764133882725135,-0.013418906968168519,0.08737060581128415,4.82205112550456E-4,-0.009013904110006628,0.11135057271037989,-0.03547488385746312,0.028527615853092575,0.2926563701903964,0.38755655826110597,0.20670250054270653,0.12246573985809531,0.29008303828807636,0.09904023759944001,0.15023343591257743,-0.2972039159424482,0.05395089667602666,-0.16219981527087896,-0.1162019334560317,-0.6356224527606519,-0.6146464792042675,-0.3729043673898378,-0.4107696322242604,-0.30560226350245223,-0.13654767229236014,0.12412570400982643,0.08105238926953895,0.42905950282619193,0.1318130678444167,-0.029080341274579688,0.05575008512562717,-0.05122799389280074,-0.17873073926011473,0.019719513781875853,-0.15723299674353947,0.18022548782483813,0.33116450617603443,0.2454563765957472,0.4316104414343996,0.5455928159793999,0.542915685610639,0.09011364027891888,0.057773239797960715,-0.16482320911067377,-0.5276773942897447,-0.19485075003195104,-0.36691617230760426,-1.036150682684507,-0.3651163582478303,-0.5888840584749924,-0.7851224907736272,-0.5346733834062678,-0.2623592760342345,-0.11888657891933084,0.075567156785981,0.2679954387919878,0.0443323051157384,0.08012564683542686,0.09378724646571936,-0.027513152794735703,0.0731427557914166,-0.05424684062092739,0.07556141343563617,0.1259360893567744,0.121753886020371,0.14796587179770346,0.43604865674073034,0.4953870446022131,0.853675265803826,0.05622358770307805,0.009131096761337226,-0.17923894420455463,-0.6337612705849195,-0.7347570008269267,-0.600869601800529,-0.8196552999983493,-0.7138082070542997,-0.7388792353499662,-0.6536975334236015,-0.5330956808251145,-0.6179820280679822,-0.044290587944328205,-0.12216657441920056,-0.005819883886132877,0.15292742801729567,-0.1514930051379679,0.13593697204830102,-0.07184365436799278,0.1251485778477805,-0.1409599368690398,0.0039755570013174,0.1231172405628119,0.1814275689099882,-0.03167241964588873,0.03887015523065618,0.38470140450711915,0.371772690992599,0.9555165410145142,0.18266895614928377,-1.2236715171837886,-1.2023709721573077,-0.5165021193196979,-0.08141674497744117,-0.5995792835897921,-0.870556557642085,-0.6911054701754972,-0.7185128215252795,-0.8454132357400745,-0.6536764014271909,-0.37540792951099916,-0.2017648006631497,-0.1892636220633997,-0.022471278777171286,-0.07077840089026614,0.06520093224415725,0.05537031352928035,-0.08892661965409325,-0.10775906615013019,0.13231220465930865,0.004837988180255431,0.12410148788176575,0.1357899314101255,0.04122384514524874,0.3074105434802797,0.7444068506046312,1.2089098507112166,-0.036654317347238015,-1.502392866154631,-1.1405236321646994,-0.23776250593307252,-0.21855725602834974,-0.7351073296046228,-0.9995042405651187,-0.8542406846050837,-0.8884925319214716,-0.8143207380660311,-0.48105336124167053,-0.28509323707687545,-0.26300847236154695,0.16612683480997575,-0.15842883995100848,0.022319196544648496,0.045460541706730355,-0.04008429514045953,0.09982684723034653,-0.018960815445176398,0.07563066174242486,-0.056388591661351066,-0.12403653882484532,0.04865061262886762,0.12931362499754298,0.10655872026694292,0.7571438990666136,1.0244105481648718,-0.2814068692209022,-1.3677804312455137,-1.15149778152983,-0.23570154515427846,-0.008312354688201826,-0.8661996780247332,-1.1343174889561347,-0.6739226200914047,-1.1329799882610994,-0.6817997634979758,-0.623388219089538,-0.49533871311664474,-0.5234495287998456,-0.25665197469064976,-0.2143332328375933,-0.14739275809679023,-0.13498359276385108,-0.00885805740815378,0.016566676718946797,0.09391429597384479,0.004828784236895301,-0.06039312361060635,-0.12156878538170422,0.18582923270562718,0.2671478741780846,0.385593708718204,0.5142826751760278,0.8845169803271745,-0.16896994766449913,-1.0934273262743979,-0.8094321221640969,-0.4124885629011589,-0.4072381448312806,-0.7026816121667007,-1.0628402231846583,-0.9987274212143554,-0.9221213760698235,-0.9190113307557893,-0.9993683390235707,-0.636180365442544,-0.17646258406699364,-0.015337545770419908,-0.06448527987751924,-0.07934458141718718,0.08094442095488573,0.050365267373960694,-0.07235974507216808,0.02287346373172961,0.10276748620078555,0.06343105561084211,0.11832050692901153,0.4327383886565983,0.36660750751049187,0.19557493858269281,0.4324406301924129,0.5981674508812561,0.47187742153411444,-0.1002757872106057,-0.07456973568312746,0.14112024908983978,-0.05329891187296403,-0.43873388626461274,-0.15015927699238704,-0.4088143138884812,-0.7626654494640329,-0.8693097421976685,-0.6863469192843967,-0.38282091714046607,-0.2892663574835644,-0.16089937027113652,0.04441644342935861,0.13998937334599193,-0.009111503907815403,-0.09698008963198217,0.04099565978004508,-0.038588447753427825,0.06365756777874484,-0.1789533623226904,-0.07988697144023685,0.158462430297363,0.2801145645316155,0.28372185272511413,0.22775778054881227,0.23464646725584756,0.5450843819936962,0.7424752238806602,1.0588465074734452,0.9556836407611119,0.5324139476344559,-0.002669449365971681,-0.12282688750825096,-0.2811637086279171,-0.7171188537211375,-0.7137402531376172,-0.6228247457132521,-0.464830290686702,-0.21631690539469664,-0.16211749878849313,-0.03329069513632354,0.09882976022603879,-0.07424370411653962,0.04347054510633209,0.06676293378876798,-0.04130883419269244,0.12653166341210403,0.020939688692462533,0.1403389884505511,-0.19658470127095146,-0.13437557290901367,-0.03465223723797998,0.035852667614692024,0.22217038578027393,0.3365436588990295,0.3784658159915744,0.18933733795281216,-0.08942443797868953,0.02564540732202177,-0.04411385610405079,-0.10009188703630813,0.05815822139410038,-0.1557975178347631,-0.17523064428945218,-0.2334704289450501,-0.2724039301859106,-0.15617936604658025,-0.06992104936980639,-0.03792322947095323,-0.05089654461104667,-0.13590742622859053,-0.011420863309528755,0.0476086121453874,-0.01767508576808809,0.027155682699961565,0.16413683851886146,0.08095725535855247,0.07002069668126305,-0.2142322249221001,-0.19134445302930506,-0.10543230068251286,-0.038483837631384125,-0.22094337539201211,-0.28613215786459173,-0.3336000553332781,-0.33780155755672875,-0.032766938603476625,-0.0859741639055378,-0.10860688388160421,-0.1902436153099832,-0.1064562317895495,-0.1723927416767937,-0.08822355443812908,0.07340164065987131,-0.30503316474588993,-0.021850513218388674,0.01952719578742042,-0.02520696031974771,0.02173706665158812,-0.005106981985985881,-0.22874300007456227,-0.016097572227807406,-0.03620417775047923,-0.09860031219754038,0.0013586404675050027,-0.11220318173328374,-0.09432284784969264,0.029053263379225935,-0.09045752371874174,-0.028994789641582697,0.17616541511863024,0.12184844916898162,-0.18017910749878582,-0.016727499632943725,-0.17066417023738037,-0.13584304850366846,-0.07575969457077429,-0.06899235537624028,-0.1250741357655203,-0.029787121987216836,0.008552372193344966,-0.0884728668455553,0.23749189562745587,-0.05668352252043531,-0.04808920222169403,-0.12871035095056904,0.017017863741508387,-0.26151867075497115,-0.07376881980845613,-0.17238484075131372,-0.1473648153239896,0.09351789801892445,-0.10650743739527539,-0.012527371615198351,0.008138324319403109,-0.1637214768378877,-0.14819188493516233,-0.03154229369496713,0.049752093462181846,0.03845118842110892,-0.02794542087753063,-0.0016652257962692023,-0.03756574754966395,-0.04888704284008293,-0.07023197170327534,-0.026179393636374153,-0.10026776357538933,0.22386949547913293,0.06412912474305682,-0.1156766393456504,0.03230138217170559,-0.16478478500027627,-0.01519245197850216,0.08325187503180141,0.05563357300244027
0.18497690662268654,0.031740714978178194,-0.2482179932592975,0.0168382060626667,-0.07092850990655213,0.059795854484967915,-0.06089893835989543,0.04613489761371141,0.029997136421717824,0.07761838489833385,-0.12486554141784745,-0.0026200012747860987,-0.05846375467350015,-0.098745671224771,0.23529702115235135,-0.1532837404062138,-0.1127193628708406,-0.05909881545458577,0.1086802800764499,-0.061907214650669576,-0.056849039971517204,0.058815806649521254,-0.07369008527118485,-0.03185697520061977,-0.016931853459289326,0.09986199639149691,0.018883362725937963,-0.02301907325646569,0.001983662536414192,0.10241636021199708,0.1464847285633534,-0.014936657356007344,-0.32667647023268237,-0.07351938466298194,-0.0659149795373992,-0.1035085201475582,2.4089658399739373E-4,0.14707711972655368,-0.10956983844610464,-0.045225067296148766,-0.07722685495684395,0.21601202944885806,0.03740528546416563,-0.1977233899482723,-0.20881915614640656,-0.0057818388094802555,0.016779529373831252,-0.03888662417909319,-0.1016837750392813,0.04500341712555146,0.0035161701904131994,-0.08913753515570483,-0.03916116951062405,0.005437227684154667,0.05273947063695024,0.054259780530780524,0.1788800192855301,0.003018311199287941,0.035142856400138325,0.21661159955409257,-0.11957097119254577,-0.04323033659682911,-0.17879700614634658,0.09309382771048916,-0.11127179005786479,8.381700113919321E-4,-0.13402898049925246,-0.16730314305390484,-0.07613517938362623,-0.1232913065857649,-0.2946487030471148,-0.17510612717232527,-0.14526924152793888,-0.1183741631064255,-0.06818728021595805,-0.16349369097830052,-0.2889748700892547,-0.048767801743724214,-0.12329718234500296,0.07930990345642412,-0.1587789270539558,-0.14010621256997702,-0.12002477411976596,-0.08936558515897967,-0.12463579499751054,-0.06305756719189745,0.10322820106529809,0.25105731180461666,-0.19877018941344032,0.16933866997431057,0.007553220944590448,-0.006766767405865545,-0.1295646877855129,0.16567651594267677,-0.058917864654718745,0.1218379402423112,-0.12426162010528145,-0.14631702646404798,-0.0053833272873479564,-0.09894175612358953,-0.28756650170098674,-0.3187815644955814,-0.17271840434005714,0.028613568722449655,-0.398142939436037,-0.0033538110873617124,-0.23612419319740274,-0.2640931192298344,-0.07288341046594207,0.12274845188701555,-0.05455916244473913,0.08980479555398337,0.07637658276310684,0.12497580835196437,0.18026335515009703,-0.14000600719844813,0.0626780235802003,0.07092127847562264,-0.052445034938861504,-0.10957992261368824,-0.1149538326666811,0.01353360430989979,0.10458396050741835,0.40759696731237255,0.3007957134835305,0.3931287680761086,0.30771938597025483,0.3949298987798512,0.4593460671173639,0.34770221256502376,0.10994383497680148,-0.019793444163365377,0.02526958362218619,-0.3402694010091699,-0.3759591588613694,-0.09087858224456928,0.03292355175655115,0.07195322006089235,-0.18108557281439508,-0.12426050822875719,-0.007021568201996804,-0.15497620502013107,0.03396551167117186,0.032668515551443573,-0.008280679521794353,-0.0200639365541603,-0.10698729318339306,0.004787443660857385,-0.07126580270519164,-0.073120163794305,0.32530331592482215,0.44371506446844866,0.376704462467714,0.1487789487077261,0.1406376184039508,0.6748721956720537,0.5883398427341652,0.8601488042495862,0.45147099544847796,0.24048480066114267,0.07197449950749905,-0.111408524143544,-0.16911634207823328,-0.026579433991459036,-0.10602292386175628,0.04617618341066572,-0.09640191350597345,0.06714183105357747,-0.08916225694537015,0.0017599492248408445,-0.018164051728821295,-0.02878645326786666,-0.06433024205329077,-0.10472766764195877,-0.14113310899699483,0.006267977036156328,0.08451102289599359,0.09156413553342478,0.24117703940844037,-0.004941280055369444,0.16084250579855586,0.12343149749448432,0.0783361301914043,0.09054527594793145,0.13002143806017363,0.02146986335363581,0.22679483329272626,0.29722653041895336,0.4008948886503996,-0.17168799247089012,-0.2495313653120891,0.03427191666164339,0.13494920755064405,0.07741981425860898,0.03797524226040528,-0.1741874345009541,0.019099666433059756,0.0077886137957617054,0.15498784372511568,-0.09784396253857536,-0.26512095912940287,-0.08270235074248396,0.04585000871513274,-0.05088598674822134,0.27406469220991936,0.1613545698371454,0.10134484647305848,-0.08973180695413224,0.18087530897271925,-0.04922694255855769,-0.37340455443235,-0.348029277499112,-0.3775580867039125,-0.47597005594820846,-0.4205735288261429,0.07498987755490882,-0.1365546887230533,0.23144848903179224,-0.03558970960422724,-0.24725209265460893,-0.14673007559694645,-0.06134801112222545,-0.001952007977919084,-0.056307931022267554,-0.16481201849029953,0.14231752652864202,-0.13952061846373373,-0.12545222035212966,-0.22056097892782037,0.2055288246348139,0.19643034323793016,0.17945692720422146,0.1999181167024787,0.10761460799178346,0.15413698809983425,-0.10206084931222692,0.057731549483248275,-0.29135255743424504,0.10010013250726524,-0.15815501470339777,-0.22554002054572733,-0.5103747259690259,-0.33325718540506954,-0.1022529688995965,0.01061604426937691,-0.12794774005767415,-0.05172754399959801,-0.16465704723790753,0.1484405293172208,0.028653140027113014,-0.04910774543195383,0.07596862781695701,0.042597512302233506,0.1596321671058013,0.07135912180176396,-0.21441903414228364,-0.2948378650763604,0.1494754986361375,0.1265915734592698,0.28425372915288627,0.1349601425517771,-0.5255316758944167,-0.16914049402593853,0.14601215112149668,-0.21992340852385908,-0.42831066507771953,0.07142118254723225,0.2522418163051078,0.2894922933772928,-0.1993049991964519,0.0028178705007365808,-0.2501189975743254,-0.3442464048229387,-0.34907318619801847,-0.30893652594939625,-0.24024537674533486,-0.10630593458058157,0.21808816337760376,0.11470763548770017,0.023294879233267247,-0.07261133906598759,0.05699348215221719,0.14167681386841569,-0.016280107148900887,-0.21149263641211852,0.12583485289944038,0.26194321460849335,0.21699883114605498,-0.1082328767761622,-0.4651567437112831,-0.48998152960393837,-0.47327922485143537,-0.42958019616772547,-0.3074652176138053,-0.15036400158494892,0.25315929222812406,0.03549831282386242,-0.15089983173019833,0.004584640323321029,-0.04434167224016224,-0.518103768354895,-0.3293972174131249,-0.11408010476569813,-0.13088500228766223,-0.02709791065822218,0.09624381679524799,0.0833430231746981,-0.057251974700388904,0.020595538733653912,0.0063593252341704095,0.014181389621072727,-0.0030601922005733936,-0.1593227319078852,0.1350037097089108,0.2719708376377077,-0.23441104442893232,-0.46443674726135314,-0.7367658568820074,-0.7591116637859179,-0.9167260005818091,-0.5451346514832798,-0.8393907257441613,-0.6818489923815292,-0.389379862507305,0.1849045131540544,0.08512394789115074,0.27181845969361074,0.16260427129382507,-0.13441955614099274,-0.37447402890407777,-0.20799839214499502,-0.3812468296488906,-0.09316542828760004,0.20755386853982233,-0.0951820358427825,-0.2044044002720497,0.1261292077005631,-0.11724716740573025,-0.039248971129958066,0.07390530147510492,0.04192838289670537,0.13535476027550253,-0.4704012497853628,-0.2937421889867521,-0.898050004657554,-0.9881476214486397,-0.87636471646892,-1.0881774011114211,-0.9325558458061358,-0.9602115311365295,-0.8522636140178778,-0.4766641883160698,-0.511631114098526,-0.0560789914320192,0.061683777275034615,0.31619762393334494,0.11367424986140388,-0.414264420017763,-0.47935349834268753,-0.7422252326772839,-0.34682243739748464,-0.0017902364614581212,0.10262642624255208,0.14180711323569659,0.10035550292036703,0.06724876566339802,0.13362080257456457,0.04198952645242651,-0.1129644286187463,-0.13496941177089483,-0.5016828366555968,-0.7146745689843869,-0.7189733779394242,-0.9095439392072436,-0.6672480800286876,-0.5890407925242442,-0.6515631274249803,-0.7861107479191719,-0.9210980735294003,-0.9318317936420528,-1.1171491403865548,-0.38506738910244226,-0.06102828371466133,0.1854193593586845,-0.13191120558253389,-0.1671945142508325,-0.3004807783261723,-0.4705415198917584,-0.15006282930508355,-0.008852146197941713,0.02720124020249937,-0.01600439691563411,0.14002504218704162,-0.13630513893557986,-0.009320537929234238,0.08218215023933342,0.174283721726169,-0.19232920363373293,-0.4749910900339622,-0.7133527454544417,-0.757779329421725,-0.6388390562255202,-0.2905453493274944,-0.6719481451638135,-0.40737439046655427,-0.36965039978900405,-0.06464941648424204,-0.5771258973721239,-0.36849543835206533,-0.5063126181706903,-0.19427991952777057,-0.010736805739117537,-0.4141405668811539,-0.2032893243561152,-0.3019431615766348,-0.3835206036900315,-0.2699922456441852,0.06612992057722644,0.14622249626243264,0.012450395762347176,0.14450543092850418,-0.09038946713527653,0.13944109343609937,0.10724834807114202,-0.04287519189489141,-0.1154498584453988,-0.28412291285667657,-0.6138158485885573,-0.6600044823492359,-0.542625203484598,-0.7651781169640988,-0.546126274960928,-0.16383033613163797,-0.10228052542635838,-0.24592129944897706,-0.07854133381398491,-0.052396317977963326,-0.621403034559233,-0.3606526327034697,-0.44761291964821925,-0.6440228866482386,-0.1269565472193508,-0.24455210880569142,-0.16560777655260953,-0.20781600190319546,0.06207015891964368,0.08022767844147001,-0.011153863336032702,-0.09270668068888303,-0.03733666377574138,0.11939612592411734,-0.017415611469077313,0.048804515697917036,0.045339245506572874,-0.0470043516195632,-0.15903298149416686,0.12199366325166804,-0.048393297423655675,-0.09390188533060506,0.11419921021127245,0.21782525637418848,-0.01092646384301039,-0.08833087099289859,-0.04109528525509923,-0.38256573348780987,-0.516040928766494,-0.7746979345133708,-0.6890550116914262,-0.11454220634289643,-0.12587518802075862,-0.03962427753660747,-0.051094269473581276,0.14189601150796022,0.13641183277630184,-0.02142335401433205,-0.10768703882003643,-0.06182819461806624,-0.007860578803332857,-0.11960569044622396,0.019996920136572324,0.0399129051205231,0.23821090350235008,0.502659766699009,0.5553065983884661,0.6681635656068389,0.5154933941190684,0.15569841518181865,0.18451454161649283,0.1987998520402577,0.11762373677069522,0.1917403660143209,0.1270666156694089,-0.2542577840462395,-0.1822382514227525,-0.2497411976971953,-0.16649261208707225,0.07077346621769455,-0.028331315971701666,-0.04189559511100619,0.1560881766165778,0.27095345059758613,0.2115954574041776,-0.05696852443422025,0.06733580605841775,-0.03254509477497499,-0.14843720198975943,0.05507680737206548,0.13044001938656566,0.17146152110028146,0.581770255745489,0.6375542250733389,0.9524610038346063,0.6492769628396589,0.7415301011342894,0.703585026168858,0.2944142575286314,0.5710754379477163,0.35302284149113616,0.36897402350524755,-0.062026487615436145,0.0172661296011216,-0.2579819166127715,-0.1597147466007006,0.09725979613880802,-0.10704766684283705,-0.14438538463450953,0.2183238125179966,0.2544243230538213,0.303051850724444,-0.05463229625714267,0.06061983148872042,0.061921477318515085,-0.04822778864132922,-0.1526292830083198,-0.015040051245331434,0.10128282177885528,0.2587101412548392,0.2062467273180804,0.7239879349296661,0.7327694585582147,0.29298238157965917,0.1754563524464784,0.3249508122953814,0.920390460937308,0.8977292020877384,0.5301747821240325,-0.00966441541529444,-0.22387158746581762,-0.07192659339904557,0.14360495989535058,0.2817747149496299,-0.06966915888029797,-0.17756920517539165,-0.10369606174197021,0.22780584600723253,0.470403741855164,0.5012608385402665,0.15774652990764954,0.11336324439475587,-0.1648598936513022,-0.1297724558333518,-0.16983788852915546,0.07916316237239918,0.33337899661176157,0.376543829078266,0.44710096774618746,0.6484081494565035,0.5711053971984158,0.11221035367729222,0.039576289113613314,-0.235489715226006,0.24012687330921823,0.3205522430537701,0.4238140864766425,0.14742830675709462,-0.21394698121267317,-0.1875442008403308,-0.31269414684943175,-0.23131961264364456,0.2929415822800829,0.26497261926700544,0.3429982678288245,0.5823573381692949,0.6789293678524456,0.18485868125671542,0.023380030799927884,-0.0032608639566925855,-0.08790456177142815,5.792037358530804E-4,-0.12513623790695694,0.10429287145542473,0.24483698832523068,0.08474956194772718,0.3404083259185128,0.4914334637331848,0.22036922871633538,0.027810146180849236,-0.02426481858216126,-0.4005084078589191,-0.5629284404848611,-0.5131272923308412,-0.23215728344820694,-0.2821024098012013,-0.4510815520354061,-0.43810229647165067,-0.3313657768852284,0.13702459667117414,0.5670734969205746,0.7252720092645505,0.7800509121818149,0.4609516606237041,0.4547364644148862,0.06047544248955807,0.10760424895447342,-0.07724985156040133,0.045980372519480506,0.12398454545432752,-0.015353632236072102,0.002897498718629251,-0.05398672743646378,0.08080410818999727,0.2999487720117932,0.32754984201284426,-0.034831539896702755,-0.013863312852633342,0.10734774340292519,-0.2480212327967085,-0.1692006628269527,-0.2609406850046072,-0.24005436781736617,-0.5432136449517877,-0.5557774238167346,-0.40423007447135706,-0.38771982597342874,0.3810136903301841,0.8223193417173736,0.8067983190158152,0.7093707065037568,0.4058481094980069,0.11143030501378999,-0.016620157675069955,0.05888176393299518,0.013074284414423612,0.06834689953617692,0.05828191547575509,-0.09883579344486328,-0.046864273256942944,-0.004763957257072486,-0.046128961703161726,-0.09468381396037591,-0.13226160313442922,-0.5913828449491846,-0.21247370521410733,-0.13413584193262695,-0.1618557537072179,-0.06407363086680469,-0.14982214328460125,-0.337395361698852,-0.5633915525735456,-0.5981218499328522,-0.25538189378115184,-0.3656232039234299,0.38169512973116254,0.4710120913682964,0.43563221622473586,0.7830054330402131,0.2956510029317846,0.002890653565656267,0.07671303682842164,-0.02670779838047743,0.008322582548877567,0.055036370650649896,0.014730153526941367,0.07116262460310867,-0.09699239263348422,-0.01472697727666712,-0.0905547479103913,-0.13435464498889607,-0.431165298513339,-0.5191480662906941,-0.4366216853561245,-0.5695922474268796,-0.5267189367410826,-0.13154515575116071,-0.25243397067128354,-0.2523235357045465,-0.21464004843029125,0.22081293784259928,-0.34043624291974656,-0.24585088479121622,0.21802965954723008,0.3953035459910265,0.1158770755524096,0.07434573683034097,0.17263315093715872,-0.04893239157075534,0.17092672611979937,-0.03360142508167814,0.017049316886162152,-0.043234920831089166,0.1076240203650294,-0.019549102832989582,0.07313864022423425,0.04769668976047273,0.10636297723377311,-0.02047476881730124,0.10751910960136976,-0.11602002523083864,-0.32035989340518073,-0.30647943218220414,-0.4491929718270553,-0.33979531372342087,-0.2020034794842249,-0.23987822605466155,-0.07447428103871107,-9.07896599617709E-4,-0.08144920329119781,0.02852376198322497,-0.0031100597967413115,0.03953190648545536,0.07606474840979024,0.02074510138856195,0.0041092083391324604,0.21449684417536707,0.03376922994257246,0.06705818615183058,0.11937241221811558,-0.10395222848232853,-0.1540270207121019,-0.04616769745843195,0.049640811058481366,-0.05555338627615554,-0.12382980552658623,-0.03706043493520576,-0.11474629207490013,-0.052022501048832874,0.06301418045676645,-0.11862231412227991,-0.10195681720575035,-0.08389376960172858,-0.08348925295237934,-0.22407550157871498,0.0036342088337741212,-0.16861028413694293,-0.08292596939838005,0.02892932835895227,-0.20515797456379561,0.16424823568995733,0.04508212028755295,-0.004009142721081961,0.05066828125686542,-0.013415762569500745,0.05697179692558629,-0.0725517726489381,0.051511393339475645,-0.0750110442617573,-0.23362841636060314,0.07987872290874638,-0.045541245950683276,0.01638874105092581,0.04450397419174301,0.012535556644294553,0.07233186846786652,0.030442363739388818,0.030268191164253916,0.06612411180083656,-0.011296593144448383,0.004143459566795945,-0.1547777408929788,0.018348175377669494,0.09077286587186173,-0.021702438481395678,0.102387009159562,0.08941459762583151,-0.08472601545967598,-0.06827614494327067,0.025318176639983307,-0.057519526889109676,-0.06911562055270971,-0.054189016300899895,0.0864279423096694,-0.03263452390697565,0.12769401138085568,0.23057758244017326
